<?xml version="1.0"?>
<MethodSetup Method="BDT::BDTAtmCCNC_202503120817">
  <GeneralInfo>
    <Info name="TMVA Release" value="4.2.1 [262657]"/>
    <Info name="ROOT Release" value="6.32/00 [401408]"/>
    <Info name="Creator" value="leoperes"/>
    <Info name="Date" value="Wed Mar 12 08:30:44 2025"/>
    <Info name="Host" value="Linux leopc 6.8.0-35-generic #35-Ubuntu SMP PREEMPT_DYNAMIC Mon May 20 15:51:52 UTC 2024 x86_64 x86_64 x86_64 GNU/Linux"/>
    <Info name="Dir" value="/home/leoperes/Dropbox/BoostedDM/Final_Analysis/UpperLimitCode/BDT"/>
    <Info name="Training events" value="2980000"/>
    <Info name="TrainingTime" value="5.63907280e+02"/>
    <Info name="AnalysisType" value="Classification"/>
  </GeneralInfo>
  <Options>
    <Option name="V" modified="Yes">False</Option>
    <Option name="VerbosityLevel" modified="No">Default</Option>
    <Option name="VarTransform" modified="No">None</Option>
    <Option name="H" modified="Yes">False</Option>
    <Option name="CreateMVAPdfs" modified="No">False</Option>
    <Option name="IgnoreNegWeightsInTraining" modified="No">False</Option>
    <Option name="NTrees" modified="Yes">300</Option>
    <Option name="MaxDepth" modified="Yes">6</Option>
    <Option name="MinNodeSize" modified="Yes">2.5%</Option>
    <Option name="nCuts" modified="Yes">50</Option>
    <Option name="BoostType" modified="Yes">AdaBoost</Option>
    <Option name="AdaBoostR2Loss" modified="No">quadratic</Option>
    <Option name="UseBaggedBoost" modified="No">False</Option>
    <Option name="Shrinkage" modified="No">1.000000e+00</Option>
    <Option name="AdaBoostBeta" modified="Yes">5.000000e-01</Option>
    <Option name="UseRandomisedTrees" modified="No">False</Option>
    <Option name="UseNvars" modified="No">3</Option>
    <Option name="UsePoissonNvars" modified="No">True</Option>
    <Option name="BaggedSampleFraction" modified="No">6.000000e-01</Option>
    <Option name="UseYesNoLeaf" modified="No">True</Option>
    <Option name="NegWeightTreatment" modified="No">inverseboostnegweights</Option>
    <Option name="Css" modified="No">1.000000e+00</Option>
    <Option name="Cts_sb" modified="No">1.000000e+00</Option>
    <Option name="Ctb_ss" modified="No">1.000000e+00</Option>
    <Option name="Cbb" modified="No">1.000000e+00</Option>
    <Option name="NodePurityLimit" modified="No">5.000000e-01</Option>
    <Option name="SeparationType" modified="Yes">giniindex</Option>
    <Option name="RegressionLossFunctionBDTG" modified="No">huber</Option>
    <Option name="HuberQuantile" modified="No">7.000000e-01</Option>
    <Option name="DoBoostMonitor" modified="Yes">True</Option>
    <Option name="UseFisherCuts" modified="No">False</Option>
    <Option name="MinLinCorrForFisher" modified="No">8.000000e-01</Option>
    <Option name="UseExclusiveVars" modified="No">False</Option>
    <Option name="DoPreselection" modified="No">False</Option>
    <Option name="SigToBkgFraction" modified="No">1.000000e+00</Option>
    <Option name="PruneMethod" modified="Yes">nopruning</Option>
    <Option name="PruneStrength" modified="No">0.000000e+00</Option>
    <Option name="PruningValFraction" modified="No">5.000000e-01</Option>
    <Option name="SkipNormalization" modified="No">False</Option>
    <Option name="nEventsMin" modified="No">0</Option>
    <Option name="UseBaggedGrad" modified="No">False</Option>
    <Option name="GradBaggingFraction" modified="No">6.000000e-01</Option>
    <Option name="UseNTrainEvents" modified="No">0</Option>
    <Option name="NNodesMax" modified="No">0</Option>
  </Options>
  <Variables NVar="10">
    <Variable VarIndex="0" Expression="PIDALongestTrack" Label="PIDALongestTrack" Title="PIDALongestTrack" Unit="" Internal="PIDALongestTrack" Type="F" Min="0.00000000e+00" Max="6.00000000e+01"/>
    <Variable VarIndex="1" Expression="nTracks" Label="nTracks" Title="nTracks" Unit="" Internal="nTracks" Type="I" Min="0.00000000e+00" Max="5.70000000e+01"/>
    <Variable VarIndex="2" Expression="nShowers" Label="nShowers" Title="nShowers" Unit="" Internal="nShowers" Type="I" Min="0.00000000e+00" Max="1.80000000e+01"/>
    <Variable VarIndex="3" Expression="NHits" Label="NHits" Title="NHits" Unit="" Internal="NHits" Type="I" Min="1.40000000e+01" Max="6.21100000e+04"/>
    <Variable VarIndex="4" Expression="log(HighestShowerSummedADC)" Label="log(HighestShowerSummedADC)" Title="log(HighestShowerSummedADC)" Unit="" Internal="log_HighestShowerSummedADC_" Type="F" Min="0.00000000e+00" Max="1.78604546e+01"/>
    <Variable VarIndex="5" Expression="LargeShowerOpenAngle" Label="LargeShowerOpenAngle" Title="LargeShowerOpenAngle" Unit="" Internal="LargeShowerOpenAngle" Type="F" Min="0.00000000e+00" Max="1.57079637e+00"/>
    <Variable VarIndex="6" Expression="LongestShower" Label="LongestShower" Title="LongestShower" Unit="" Internal="LongestShower" Type="F" Min="0.00000000e+00" Max="1.39418518e+03"/>
    <Variable VarIndex="7" Expression="CVN_NCScore" Label="CVN_NCScore" Title="CVN_NCScore" Unit="" Internal="CVN_NCScore" Type="F" Min="-1.00000000e+00" Max="9.99996901e-01"/>
    <Variable VarIndex="8" Expression="LongestTrack" Label="LongestTrack" Title="LongestTrack" Unit="" Internal="LongestTrack" Type="F" Min="1.00000001e-10" Max="2.20507844e+05"/>
    <Variable VarIndex="9" Expression="FracTotalChargeLongTrack" Label="FracTotalChargeLongTrack" Title="FracTotalChargeLongTrack" Unit="" Internal="FracTotalChargeLongTrack" Type="F" Min="1.90001753e-18" Max="1.00000298e+00"/>
  </Variables>
  <Spectators NSpec="1">
    <Spectator SpecIndex="0" Expression="event" Label="event" Title="I" Unit="" Internal="event" Type="F" Min="1.00000000e+00" Max="2.50000000e+06"/>
  </Spectators>
  <Classes NClass="2">
    <Class Name="Signal" Index="0"/>
    <Class Name="Background" Index="1"/>
  </Classes>
  <Transformations NTransformations="0"/>
  <MVAPdfs/>
  <Weights NTrees="300" AnalysisType="0">
    <BinaryTree type="DecisionTree" boostWeight="7.7209748446231430e-01" itree="0">
      <Node pos="s" depth="0" NCoef="0" IVar="7" Cut="9.6078127622604370e-01" cType="0" res="-9.9000000000000000e+01" rms="0.0000000000000000e+00" purity="5.0000000000000000e-01" nType="0">
        <Node pos="l" depth="1" NCoef="0" IVar="-1" Cut="9.9384540319442749e-01" cType="0" res="-9.9000000000000000e+01" rms="0.0000000000000000e+00" purity="8.4713554382324219e-01" nType="1"/>
        <Node pos="r" depth="1" NCoef="0" IVar="7" Cut="-9.6155333518981934e-01" cType="1" res="-9.9000000000000000e+01" rms="0.0000000000000000e+00" purity="3.0215820670127869e-01" nType="0">
          <Node pos="l" depth="2" NCoef="0" IVar="-1" Cut="0.0000000000000000e+00" cType="1" res="-9.9000000000000000e+01" rms="0.0000000000000000e+00" purity="9.6241331100463867e-01" nType="1"/>
          <Node pos="r" depth="2" NCoef="0" IVar="7" Cut="4.8981001973152161e-01" cType="0" res="-9.9000000000000000e+01" rms="0.0000000000000000e+00" purity="2.1913601458072662e-01" nType="0">
            <Node pos="l" depth="3" NCoef="0" IVar="7" Cut="8.4996443986892700e-01" cType="0" res="-9.9000000000000000e+01" rms="0.0000000000000000e+00" purity="4.0250048041343689e-01" nType="0">
              <Node pos="l" depth="4" NCoef="0" IVar="1" Cut="3.0000000000000000e+00" cType="0" res="-9.9000000000000000e+01" rms="0.0000000000000000e+00" purity="4.8556488752365112e-01" nType="0">
                <Node pos="l" depth="5" NCoef="0" IVar="-1" Cut="0.0000000000000000e+00" cType="1" res="-9.9000000000000000e+01" rms="0.0000000000000000e+00" purity="5.7213580608367920e-01" nType="1"/>
                <Node pos="r" depth="5" NCoef="0" IVar="-1" Cut="9.2384225130081177e-01" cType="0" res="-9.9000000000000000e+01" rms="0.0000000000000000e+00" purity="4.3861407041549683e-01" nType="-1"/>
              </Node>
              <Node pos="r" depth="4" NCoef="0" IVar="1" Cut="4.0000000000000000e+00" cType="0" res="-9.9000000000000000e+01" rms="0.0000000000000000e+00" purity="3.3034402132034302e-01" nType="0">
                <Node pos="l" depth="5" NCoef="0" IVar="-1" Cut="0.0000000000000000e+00" cType="1" res="-9.9000000000000000e+01" rms="0.0000000000000000e+00" purity="5.0435459613800049e-01" nType="1"/>
                <Node pos="r" depth="5" NCoef="0" IVar="-1" Cut="1.5301696956157684e-01" cType="0" res="-9.9000000000000000e+01" rms="0.0000000000000000e+00" purity="2.7718010544776917e-01" nType="-1"/>
              </Node>
            </Node>
            <Node pos="r" depth="3" NCoef="0" IVar="-1" Cut="1.6326926648616791e-01" cType="0" res="-9.9000000000000000e+01" rms="0.0000000000000000e+00" purity="7.1181565523147583e-02" nType="-1"/>
          </Node>
        </Node>
      </Node>
    </BinaryTree>
    <BinaryTree type="DecisionTree" boostWeight="5.3194686165202465e-01" itree="1">
      <Node pos="s" depth="0" NCoef="0" IVar="7" Cut="9.2156565189361572e-01" cType="0" res="-9.9000000000000000e+01" rms="0.0000000000000000e+00" purity="4.9655872583389282e-01" nType="0">
        <Node pos="l" depth="1" NCoef="0" IVar="7" Cut="9.9538332223892212e-01" cType="0" res="-9.9000000000000000e+01" rms="0.0000000000000000e+00" purity="6.9582539796829224e-01" nType="0">
          <Node pos="l" depth="2" NCoef="0" IVar="-1" Cut="9.9827814102172852e-01" cType="0" res="-9.9000000000000000e+01" rms="0.0000000000000000e+00" purity="9.0676069259643555e-01" nType="1"/>
          <Node pos="r" depth="2" NCoef="0" IVar="7" Cut="9.8959350585937500e-01" cType="0" res="-9.9000000000000000e+01" rms="0.0000000000000000e+00" purity="5.4881435632705688e-01" nType="0">
            <Node pos="l" depth="3" NCoef="0" IVar="-1" Cut="0.0000000000000000e+00" cType="1" res="-9.9000000000000000e+01" rms="0.0000000000000000e+00" purity="6.6104310750961304e-01" nType="1"/>
            <Node pos="r" depth="3" NCoef="0" IVar="7" Cut="9.6024817228317261e-01" cType="1" res="-9.9000000000000000e+01" rms="0.0000000000000000e+00" purity="5.1682668924331665e-01" nType="0">
              <Node pos="l" depth="4" NCoef="0" IVar="-1" Cut="9.8039299249649048e-02" cType="0" res="-9.9000000000000000e+01" rms="0.0000000000000000e+00" purity="5.8541071414947510e-01" nType="1"/>
              <Node pos="r" depth="4" NCoef="0" IVar="7" Cut="9.7981172800064087e-01" cType="0" res="-9.9000000000000000e+01" rms="0.0000000000000000e+00" purity="4.7560602426528931e-01" nType="0">
                <Node pos="l" depth="5" NCoef="0" IVar="-1" Cut="0.0000000000000000e+00" cType="1" res="-9.9000000000000000e+01" rms="0.0000000000000000e+00" purity="5.2885478734970093e-01" nType="1"/>
                <Node pos="r" depth="5" NCoef="0" IVar="-1" Cut="0.0000000000000000e+00" cType="1" res="-9.9000000000000000e+01" rms="0.0000000000000000e+00" purity="4.3101069331169128e-01" nType="-1"/>
              </Node>
            </Node>
          </Node>
        </Node>
        <Node pos="r" depth="1" NCoef="0" IVar="7" Cut="-9.6232223510742188e-01" cType="1" res="-9.9000000000000000e+01" rms="0.0000000000000000e+00" purity="3.4590625762939453e-01" nType="0">
          <Node pos="l" depth="2" NCoef="0" IVar="-1" Cut="0.0000000000000000e+00" cType="1" res="-9.9000000000000000e+01" rms="0.0000000000000000e+00" purity="9.2206192016601562e-01" nType="1"/>
          <Node pos="r" depth="2" NCoef="0" IVar="7" Cut="2.7104872465133667e-01" cType="0" res="-9.9000000000000000e+01" rms="0.0000000000000000e+00" purity="2.7597647905349731e-01" nType="0">
            <Node pos="l" depth="3" NCoef="0" IVar="5" Cut="1.5399964153766632e-01" cType="0" res="-9.9000000000000000e+01" rms="0.0000000000000000e+00" purity="4.1880011558532715e-01" nType="0">
              <Node pos="l" depth="4" NCoef="0" IVar="1" Cut="4.0000000000000000e+00" cType="1" res="-9.9000000000000000e+01" rms="0.0000000000000000e+00" purity="5.0170129537582397e-01" nType="0">
                <Node pos="l" depth="5" NCoef="0" IVar="7" Cut="6.2819308042526245e-01" cType="0" res="-9.9000000000000000e+01" rms="0.0000000000000000e+00" purity="5.4883617162704468e-01" nType="0">
                  <Node pos="l" depth="6" NCoef="0" IVar="-1" Cut="0.0000000000000000e+00" cType="1" res="-9.9000000000000000e+01" rms="0.0000000000000000e+00" purity="5.9850275516510010e-01" nType="1"/>
                  <Node pos="r" depth="6" NCoef="0" IVar="-1" Cut="0.0000000000000000e+00" cType="1" res="-9.9000000000000000e+01" rms="0.0000000000000000e+00" purity="4.4911634922027588e-01" nType="-1"/>
                </Node>
                <Node pos="r" depth="5" NCoef="0" IVar="-1" Cut="0.0000000000000000e+00" cType="1" res="-9.9000000000000000e+01" rms="0.0000000000000000e+00" purity="4.1674086451530457e-01" nType="-1"/>
              </Node>
              <Node pos="r" depth="4" NCoef="0" IVar="-1" Cut="7.1748203039169312e-01" cType="0" res="-9.9000000000000000e+01" rms="0.0000000000000000e+00" purity="3.5969144105911255e-01" nType="-1"/>
            </Node>
            <Node pos="r" depth="3" NCoef="0" IVar="-1" Cut="9.0349450707435608e-02" cType="0" res="-9.9000000000000000e+01" rms="0.0000000000000000e+00" purity="9.1192275285720825e-02" nType="-1"/>
          </Node>
        </Node>
      </Node>
    </BinaryTree>
    <BinaryTree type="DecisionTree" boostWeight="3.7441749771594807e-01" itree="2">
      <Node pos="s" depth="0" NCoef="0" IVar="7" Cut="3.7254688143730164e-01" cType="0" res="-9.9000000000000000e+01" rms="0.0000000000000000e+00" purity="5.0312751531600952e-01" nType="0">
        <Node pos="l" depth="1" NCoef="0" IVar="7" Cut="9.8769396543502808e-01" cType="0" res="-9.9000000000000000e+01" rms="0.0000000000000000e+00" purity="5.7784241437911987e-01" nType="0">
          <Node pos="l" depth="2" NCoef="0" IVar="7" Cut="9.9710208177566528e-01" cType="0" res="-9.9000000000000000e+01" rms="0.0000000000000000e+00" purity="7.4498116970062256e-01" nType="0">
            <Node pos="l" depth="3" NCoef="0" IVar="-1" Cut="9.9880492687225342e-01" cType="0" res="-9.9000000000000000e+01" rms="0.0000000000000000e+00" purity="8.8936001062393188e-01" nType="1"/>
            <Node pos="r" depth="3" NCoef="0" IVar="7" Cut="9.9415045976638794e-01" cType="0" res="-9.9000000000000000e+01" rms="0.0000000000000000e+00" purity="5.5546933412551880e-01" nType="0">
              <Node pos="l" depth="4" NCoef="0" IVar="-1" Cut="0.0000000000000000e+00" cType="1" res="-9.9000000000000000e+01" rms="0.0000000000000000e+00" purity="6.4105409383773804e-01" nType="1"/>
              <Node pos="r" depth="4" NCoef="0" IVar="-1" Cut="0.0000000000000000e+00" cType="1" res="-9.9000000000000000e+01" rms="0.0000000000000000e+00" purity="4.9289765954017639e-01" nType="-1"/>
            </Node>
          </Node>
          <Node pos="r" depth="2" NCoef="0" IVar="0" Cut="9.4117650985717773e+00" cType="0" res="-9.9000000000000000e+01" rms="0.0000000000000000e+00" purity="4.9724006652832031e-01" nType="0">
            <Node pos="l" depth="3" NCoef="0" IVar="4" Cut="1.3204884529113770e+01" cType="1" res="-9.9000000000000000e+01" rms="0.0000000000000000e+00" purity="5.3233373165130615e-01" nType="0">
              <Node pos="l" depth="4" NCoef="0" IVar="-1" Cut="3.0000000000000000e+00" cType="1" res="-9.9000000000000000e+01" rms="0.0000000000000000e+00" purity="5.5026912689208984e-01" nType="1"/>
              <Node pos="r" depth="4" NCoef="0" IVar="-1" Cut="0.0000000000000000e+00" cType="1" res="-9.9000000000000000e+01" rms="0.0000000000000000e+00" purity="4.2566683888435364e-01" nType="-1"/>
            </Node>
            <Node pos="r" depth="3" NCoef="0" IVar="2" Cut="2.0000000000000000e+00" cType="0" res="-9.9000000000000000e+01" rms="0.0000000000000000e+00" purity="4.6711024641990662e-01" nType="0">
              <Node pos="l" depth="4" NCoef="0" IVar="4" Cut="1.2957584381103516e+01" cType="1" res="-9.9000000000000000e+01" rms="0.0000000000000000e+00" purity="5.1942598819732666e-01" nType="0">
                <Node pos="l" depth="5" NCoef="0" IVar="-1" Cut="0.0000000000000000e+00" cType="1" res="-9.9000000000000000e+01" rms="0.0000000000000000e+00" purity="5.5389815568923950e-01" nType="1"/>
                <Node pos="r" depth="5" NCoef="0" IVar="-1" Cut="0.0000000000000000e+00" cType="1" res="-9.9000000000000000e+01" rms="0.0000000000000000e+00" purity="4.6168601512908936e-01" nType="-1"/>
              </Node>
              <Node pos="r" depth="4" NCoef="0" IVar="7" Cut="7.2233670949935913e-01" cType="0" res="-9.9000000000000000e+01" rms="0.0000000000000000e+00" purity="4.4149205088615417e-01" nType="0">
                <Node pos="l" depth="5" NCoef="0" IVar="7" Cut="9.2005401849746704e-01" cType="1" res="-9.9000000000000000e+01" rms="0.0000000000000000e+00" purity="4.5875233411788940e-01" nType="0">
                  <Node pos="l" depth="6" NCoef="0" IVar="-1" Cut="0.0000000000000000e+00" cType="1" res="-9.9000000000000000e+01" rms="0.0000000000000000e+00" purity="5.0599747896194458e-01" nType="1"/>
                  <Node pos="r" depth="6" NCoef="0" IVar="-1" Cut="0.0000000000000000e+00" cType="1" res="-9.9000000000000000e+01" rms="0.0000000000000000e+00" purity="4.2532053589820862e-01" nType="-1"/>
                </Node>
                <Node pos="r" depth="5" NCoef="0" IVar="-1" Cut="0.0000000000000000e+00" cType="1" res="-9.9000000000000000e+01" rms="0.0000000000000000e+00" purity="3.9024299383163452e-01" nType="-1"/>
              </Node>
            </Node>
          </Node>
        </Node>
        <Node pos="r" depth="1" NCoef="0" IVar="3" Cut="1.0100000000000000e+02" cType="1" res="-9.9000000000000000e+01" rms="0.0000000000000000e+00" purity="3.1373661756515503e-01" nType="0">
          <Node pos="l" depth="2" NCoef="0" IVar="-1" Cut="0.0000000000000000e+00" cType="1" res="-9.9000000000000000e+01" rms="0.0000000000000000e+00" purity="8.7229835987091064e-01" nType="1"/>
          <Node pos="r" depth="2" NCoef="0" IVar="-1" Cut="9.4962693750858307e-02" cType="0" res="-9.9000000000000000e+01" rms="0.0000000000000000e+00" purity="1.7771102488040924e-01" nType="-1"/>
        </Node>
      </Node>
    </BinaryTree>
    <BinaryTree type="DecisionTree" boostWeight="3.2559074366256757e-01" itree="3">
      <Node pos="s" depth="0" NCoef="0" IVar="7" Cut="9.6078127622604370e-01" cType="0" res="-9.9000000000000000e+01" rms="0.0000000000000000e+00" purity="4.9750378727912903e-01" nType="0">
        <Node pos="l" depth="1" NCoef="0" IVar="7" Cut="9.9769008159637451e-01" cType="0" res="-9.9000000000000000e+01" rms="0.0000000000000000e+00" purity="6.3147485256195068e-01" nType="0">
          <Node pos="l" depth="2" NCoef="0" IVar="-1" Cut="9.9904704093933105e-01" cType="0" res="-9.9000000000000000e+01" rms="0.0000000000000000e+00" purity="8.6665439605712891e-01" nType="1"/>
          <Node pos="r" depth="2" NCoef="0" IVar="7" Cut="9.8828184604644775e-01" cType="0" res="-9.9000000000000000e+01" rms="0.0000000000000000e+00" purity="5.2588719129562378e-01" nType="0">
            <Node pos="l" depth="3" NCoef="0" IVar="-1" Cut="1.0588234901428223e+01" cType="0" res="-9.9000000000000000e+01" rms="0.0000000000000000e+00" purity="5.8322542905807495e-01" nType="1"/>
            <Node pos="r" depth="3" NCoef="0" IVar="7" Cut="9.7965419292449951e-01" cType="1" res="-9.9000000000000000e+01" rms="0.0000000000000000e+00" purity="4.7658103704452515e-01" nType="0">
              <Node pos="l" depth="4" NCoef="0" IVar="-1" Cut="0.0000000000000000e+00" cType="1" res="-9.9000000000000000e+01" rms="0.0000000000000000e+00" purity="5.4571866989135742e-01" nType="1"/>
              <Node pos="r" depth="4" NCoef="0" IVar="-1" Cut="0.0000000000000000e+00" cType="1" res="-9.9000000000000000e+01" rms="0.0000000000000000e+00" purity="3.8570037484169006e-01" nType="-1"/>
            </Node>
          </Node>
        </Node>
        <Node pos="r" depth="1" NCoef="0" IVar="3" Cut="1.0100000000000000e+02" cType="1" res="-9.9000000000000000e+01" rms="0.0000000000000000e+00" purity="4.2426815629005432e-01" nType="0">
          <Node pos="l" depth="2" NCoef="0" IVar="-1" Cut="0.0000000000000000e+00" cType="1" res="-9.9000000000000000e+01" rms="0.0000000000000000e+00" purity="8.1823074817657471e-01" nType="1"/>
          <Node pos="r" depth="2" NCoef="0" IVar="7" Cut="1.1303308606147766e-01" cType="0" res="-9.9000000000000000e+01" rms="0.0000000000000000e+00" purity="3.8884335756301880e-01" nType="0">
            <Node pos="l" depth="3" NCoef="0" IVar="3" Cut="1.6110000000000000e+03" cType="0" res="-9.9000000000000000e+01" rms="0.0000000000000000e+00" purity="4.6482869982719421e-01" nType="0">
              <Node pos="l" depth="4" NCoef="0" IVar="5" Cut="1.2319971621036530e-01" cType="0" res="-9.9000000000000000e+01" rms="0.0000000000000000e+00" purity="5.2524107694625854e-01" nType="0">
                <Node pos="l" depth="5" NCoef="0" IVar="7" Cut="6.2832933664321899e-01" cType="1" res="-9.9000000000000000e+01" rms="0.0000000000000000e+00" purity="5.5882525444030762e-01" nType="0">
                  <Node pos="l" depth="6" NCoef="0" IVar="-1" Cut="0.0000000000000000e+00" cType="1" res="-9.9000000000000000e+01" rms="0.0000000000000000e+00" purity="6.4898866415023804e-01" nType="1"/>
                  <Node pos="r" depth="6" NCoef="0" IVar="-1" Cut="0.0000000000000000e+00" cType="1" res="-9.9000000000000000e+01" rms="0.0000000000000000e+00" purity="4.9781769514083862e-01" nType="-1"/>
                </Node>
                <Node pos="r" depth="5" NCoef="0" IVar="-1" Cut="0.0000000000000000e+00" cType="1" res="-9.9000000000000000e+01" rms="0.0000000000000000e+00" purity="4.2029878497123718e-01" nType="-1"/>
              </Node>
              <Node pos="r" depth="4" NCoef="0" IVar="-1" Cut="2.9588147997856140e-01" cType="0" res="-9.9000000000000000e+01" rms="0.0000000000000000e+00" purity="4.3141320347785950e-01" nType="-1"/>
            </Node>
            <Node pos="r" depth="3" NCoef="0" IVar="-1" Cut="2.4379540234804153e-02" cType="0" res="-9.9000000000000000e+01" rms="0.0000000000000000e+00" purity="1.2525048851966858e-01" nType="-1"/>
          </Node>
        </Node>
      </Node>
    </BinaryTree>
    <BinaryTree type="DecisionTree" boostWeight="2.7117427716098302e-01" itree="4">
      <Node pos="s" depth="0" NCoef="0" IVar="7" Cut="2.1568438410758972e-01" cType="0" res="-9.9000000000000000e+01" rms="0.0000000000000000e+00" purity="5.1432693004608154e-01" nType="0">
        <Node pos="l" depth="1" NCoef="0" IVar="7" Cut="9.8461824655532837e-01" cType="0" res="-9.9000000000000000e+01" rms="0.0000000000000000e+00" purity="5.5807101726531982e-01" nType="0">
          <Node pos="l" depth="2" NCoef="0" IVar="7" Cut="9.9818766117095947e-01" cType="0" res="-9.9000000000000000e+01" rms="0.0000000000000000e+00" purity="6.3562160730361938e-01" nType="0">
            <Node pos="l" depth="3" NCoef="0" IVar="-1" Cut="9.9932289123535156e-01" cType="0" res="-9.9000000000000000e+01" rms="0.0000000000000000e+00" purity="8.4925454854965210e-01" nType="1"/>
            <Node pos="r" depth="3" NCoef="0" IVar="9" Cut="5.8823563158512115e-02" cType="0" res="-9.9000000000000000e+01" rms="0.0000000000000000e+00" purity="5.1137608289718628e-01" nType="0">
              <Node pos="l" depth="4" NCoef="0" IVar="0" Cut="1.0588234901428223e+01" cType="0" res="-9.9000000000000000e+01" rms="0.0000000000000000e+00" purity="5.5347979068756104e-01" nType="0">
                <Node pos="l" depth="5" NCoef="0" IVar="-1" Cut="0.0000000000000000e+00" cType="1" res="-9.9000000000000000e+01" rms="0.0000000000000000e+00" purity="6.0423803329467773e-01" nType="1"/>
                <Node pos="r" depth="5" NCoef="0" IVar="-1" Cut="0.0000000000000000e+00" cType="1" res="-9.9000000000000000e+01" rms="0.0000000000000000e+00" purity="4.7506418824195862e-01" nType="-1"/>
              </Node>
              <Node pos="r" depth="4" NCoef="0" IVar="-1" Cut="0.0000000000000000e+00" cType="1" res="-9.9000000000000000e+01" rms="0.0000000000000000e+00" purity="4.1089868545532227e-01" nType="-1"/>
            </Node>
          </Node>
          <Node pos="r" depth="2" NCoef="0" IVar="7" Cut="9.5446395874023438e-01" cType="1" res="-9.9000000000000000e+01" rms="0.0000000000000000e+00" purity="5.2351266145706177e-01" nType="0">
            <Node pos="l" depth="3" NCoef="0" IVar="3" Cut="1.2500000000000000e+03" cType="0" res="-9.9000000000000000e+01" rms="0.0000000000000000e+00" purity="5.3752493858337402e-01" nType="0">
              <Node pos="l" depth="4" NCoef="0" IVar="-1" Cut="1.2319971621036530e-01" cType="0" res="-9.9000000000000000e+01" rms="0.0000000000000000e+00" purity="5.6371980905532837e-01" nType="1"/>
              <Node pos="r" depth="4" NCoef="0" IVar="1" Cut="3.0000000000000000e+00" cType="1" res="-9.9000000000000000e+01" rms="0.0000000000000000e+00" purity="5.1659953594207764e-01" nType="0">
                <Node pos="l" depth="5" NCoef="0" IVar="7" Cut="8.0960476398468018e-01" cType="0" res="-9.9000000000000000e+01" rms="0.0000000000000000e+00" purity="5.3636783361434937e-01" nType="0">
                  <Node pos="l" depth="6" NCoef="0" IVar="-1" Cut="0.0000000000000000e+00" cType="1" res="-9.9000000000000000e+01" rms="0.0000000000000000e+00" purity="6.0353171825408936e-01" nType="1"/>
                  <Node pos="r" depth="6" NCoef="0" IVar="-1" Cut="0.0000000000000000e+00" cType="1" res="-9.9000000000000000e+01" rms="0.0000000000000000e+00" purity="4.6983414888381958e-01" nType="-1"/>
                </Node>
                <Node pos="r" depth="5" NCoef="0" IVar="-1" Cut="0.0000000000000000e+00" cType="1" res="-9.9000000000000000e+01" rms="0.0000000000000000e+00" purity="4.4933411478996277e-01" nType="-1"/>
              </Node>
            </Node>
            <Node pos="r" depth="3" NCoef="0" IVar="0" Cut="9.4117650985717773e+00" cType="1" res="-9.9000000000000000e+01" rms="0.0000000000000000e+00" purity="4.7713294625282288e-01" nType="0">
              <Node pos="l" depth="4" NCoef="0" IVar="-1" Cut="0.0000000000000000e+00" cType="1" res="-9.9000000000000000e+01" rms="0.0000000000000000e+00" purity="5.0956422090530396e-01" nType="1"/>
              <Node pos="r" depth="4" NCoef="0" IVar="-1" Cut="0.0000000000000000e+00" cType="1" res="-9.9000000000000000e+01" rms="0.0000000000000000e+00" purity="4.4399040937423706e-01" nType="-1"/>
            </Node>
          </Node>
        </Node>
        <Node pos="r" depth="1" NCoef="0" IVar="7" Cut="-9.7616308927536011e-01" cType="1" res="-9.9000000000000000e+01" rms="0.0000000000000000e+00" purity="3.4662795066833496e-01" nType="0">
          <Node pos="l" depth="2" NCoef="0" IVar="-1" Cut="0.0000000000000000e+00" cType="1" res="-9.9000000000000000e+01" rms="0.0000000000000000e+00" purity="7.7534502744674683e-01" nType="1"/>
          <Node pos="r" depth="2" NCoef="0" IVar="-1" Cut="4.2290918529033661e-02" cType="0" res="-9.9000000000000000e+01" rms="0.0000000000000000e+00" purity="2.1749794483184814e-01" nType="-1"/>
        </Node>
      </Node>
    </BinaryTree>
    <BinaryTree type="DecisionTree" boostWeight="2.1713302354517489e-01" itree="5">
      <Node pos="s" depth="0" NCoef="0" IVar="7" Cut="1.3725313544273376e-01" cType="0" res="-9.9000000000000000e+01" rms="0.0000000000000000e+00" purity="5.0850474834442139e-01" nType="0">
        <Node pos="l" depth="1" NCoef="0" IVar="7" Cut="9.8308032751083374e-01" cType="0" res="-9.9000000000000000e+01" rms="0.0000000000000000e+00" purity="5.3994488716125488e-01" nType="0">
          <Node pos="l" depth="2" NCoef="0" IVar="7" Cut="9.9867010116577148e-01" cType="0" res="-9.9000000000000000e+01" rms="0.0000000000000000e+00" purity="6.1567962169647217e-01" nType="0">
            <Node pos="l" depth="3" NCoef="0" IVar="-1" Cut="9.9942457675933838e-01" cType="0" res="-9.9000000000000000e+01" rms="0.0000000000000000e+00" purity="8.4214156866073608e-01" nType="1"/>
            <Node pos="r" depth="3" NCoef="0" IVar="7" Cut="9.9714159965515137e-01" cType="0" res="-9.9000000000000000e+01" rms="0.0000000000000000e+00" purity="5.2685648202896118e-01" nType="0">
              <Node pos="l" depth="4" NCoef="0" IVar="-1" Cut="0.0000000000000000e+00" cType="1" res="-9.9000000000000000e+01" rms="0.0000000000000000e+00" purity="6.2677222490310669e-01" nType="1"/>
              <Node pos="r" depth="4" NCoef="0" IVar="4" Cut="1.0393505096435547e+01" cType="1" res="-9.9000000000000000e+01" rms="0.0000000000000000e+00" purity="5.0151795148849487e-01" nType="0">
                <Node pos="l" depth="5" NCoef="0" IVar="1" Cut="2.0000000000000000e+00" cType="1" res="-9.9000000000000000e+01" rms="0.0000000000000000e+00" purity="5.2192473411560059e-01" nType="0">
                  <Node pos="l" depth="6" NCoef="0" IVar="-1" Cut="0.0000000000000000e+00" cType="1" res="-9.9000000000000000e+01" rms="0.0000000000000000e+00" purity="5.6085318326950073e-01" nType="1"/>
                  <Node pos="r" depth="6" NCoef="0" IVar="-1" Cut="0.0000000000000000e+00" cType="1" res="-9.9000000000000000e+01" rms="0.0000000000000000e+00" purity="4.9495247006416321e-01" nType="-1"/>
                </Node>
                <Node pos="r" depth="5" NCoef="0" IVar="-1" Cut="0.0000000000000000e+00" cType="1" res="-9.9000000000000000e+01" rms="0.0000000000000000e+00" purity="4.5746028423309326e-01" nType="-1"/>
              </Node>
            </Node>
          </Node>
          <Node pos="r" depth="2" NCoef="0" IVar="7" Cut="9.1674089431762695e-01" cType="1" res="-9.9000000000000000e+01" rms="0.0000000000000000e+00" purity="5.0690281391143799e-01" nType="0">
            <Node pos="l" depth="3" NCoef="0" IVar="9" Cut="7.8431464731693268e-02" cType="0" res="-9.9000000000000000e+01" rms="0.0000000000000000e+00" purity="5.2171838283538818e-01" nType="0">
              <Node pos="l" depth="4" NCoef="0" IVar="7" Cut="4.4293451309204102e-01" cType="0" res="-9.9000000000000000e+01" rms="0.0000000000000000e+00" purity="5.4004007577896118e-01" nType="0">
                <Node pos="l" depth="5" NCoef="0" IVar="-1" Cut="9.4117650985717773e+00" cType="0" res="-9.9000000000000000e+01" rms="0.0000000000000000e+00" purity="5.6103491783142090e-01" nType="1"/>
                <Node pos="r" depth="5" NCoef="0" IVar="-1" Cut="0.0000000000000000e+00" cType="1" res="-9.9000000000000000e+01" rms="0.0000000000000000e+00" purity="4.7921794652938843e-01" nType="-1"/>
              </Node>
              <Node pos="r" depth="4" NCoef="0" IVar="5" Cut="2.1559950709342957e-01" cType="0" res="-9.9000000000000000e+01" rms="0.0000000000000000e+00" purity="5.0891453027725220e-01" nType="0">
                <Node pos="l" depth="5" NCoef="0" IVar="-1" Cut="5.1935577392578125e-01" cType="1" res="-9.9000000000000000e+01" rms="0.0000000000000000e+00" purity="5.3411900997161865e-01" nType="1"/>
                <Node pos="r" depth="5" NCoef="0" IVar="4" Cut="1.2276809692382812e+01" cType="1" res="-9.9000000000000000e+01" rms="0.0000000000000000e+00" purity="4.8747664690017700e-01" nType="0">
                  <Node pos="l" depth="6" NCoef="0" IVar="-1" Cut="0.0000000000000000e+00" cType="1" res="-9.9000000000000000e+01" rms="0.0000000000000000e+00" purity="5.0936084985733032e-01" nType="1"/>
                  <Node pos="r" depth="6" NCoef="0" IVar="-1" Cut="0.0000000000000000e+00" cType="1" res="-9.9000000000000000e+01" rms="0.0000000000000000e+00" purity="4.4930306077003479e-01" nType="-1"/>
                </Node>
              </Node>
            </Node>
            <Node pos="r" depth="3" NCoef="0" IVar="1" Cut="3.0000000000000000e+00" cType="1" res="-9.9000000000000000e+01" rms="0.0000000000000000e+00" purity="4.7901585698127747e-01" nType="0">
              <Node pos="l" depth="4" NCoef="0" IVar="7" Cut="9.6096700429916382e-01" cType="1" res="-9.9000000000000000e+01" rms="0.0000000000000000e+00" purity="5.0325310230255127e-01" nType="0">
                <Node pos="l" depth="5" NCoef="0" IVar="-1" Cut="0.0000000000000000e+00" cType="1" res="-9.9000000000000000e+01" rms="0.0000000000000000e+00" purity="5.7330846786499023e-01" nType="1"/>
                <Node pos="r" depth="5" NCoef="0" IVar="-1" Cut="0.0000000000000000e+00" cType="1" res="-9.9000000000000000e+01" rms="0.0000000000000000e+00" purity="4.3737220764160156e-01" nType="-1"/>
              </Node>
              <Node pos="r" depth="4" NCoef="0" IVar="-1" Cut="0.0000000000000000e+00" cType="1" res="-9.9000000000000000e+01" rms="0.0000000000000000e+00" purity="4.2852234840393066e-01" nType="-1"/>
            </Node>
          </Node>
        </Node>
        <Node pos="r" depth="1" NCoef="0" IVar="7" Cut="-9.7770094871520996e-01" cType="1" res="-9.9000000000000000e+01" rms="0.0000000000000000e+00" purity="3.5667952895164490e-01" nType="0">
          <Node pos="l" depth="2" NCoef="0" IVar="-1" Cut="0.0000000000000000e+00" cType="1" res="-9.9000000000000000e+01" rms="0.0000000000000000e+00" purity="7.2463452816009521e-01" nType="1"/>
          <Node pos="r" depth="2" NCoef="0" IVar="-1" Cut="2.1529892459511757e-02" cType="0" res="-9.9000000000000000e+01" rms="0.0000000000000000e+00" purity="2.2196952998638153e-01" nType="-1"/>
        </Node>
      </Node>
    </BinaryTree>
    <BinaryTree type="DecisionTree" boostWeight="1.8274746426474484e-01" itree="6">
      <Node pos="s" depth="0" NCoef="0" IVar="7" Cut="9.8037511110305786e-02" cType="0" res="-9.9000000000000000e+01" rms="0.0000000000000000e+00" purity="5.0288790464401245e-01" nType="0">
        <Node pos="l" depth="1" NCoef="0" IVar="7" Cut="9.8231142759323120e-01" cType="0" res="-9.9000000000000000e+01" rms="0.0000000000000000e+00" purity="5.2715510129928589e-01" nType="0">
          <Node pos="l" depth="2" NCoef="0" IVar="7" Cut="9.9895656108856201e-01" cType="0" res="-9.9000000000000000e+01" rms="0.0000000000000000e+00" purity="6.0696017742156982e-01" nType="0">
            <Node pos="l" depth="3" NCoef="0" IVar="-1" Cut="9.9954813718795776e-01" cType="0" res="-9.9000000000000000e+01" rms="0.0000000000000000e+00" purity="8.3665496110916138e-01" nType="1"/>
            <Node pos="r" depth="3" NCoef="0" IVar="3" Cut="2.0400000000000000e+02" cType="1" res="-9.9000000000000000e+01" rms="0.0000000000000000e+00" purity="5.4017668962478638e-01" nType="0">
              <Node pos="l" depth="4" NCoef="0" IVar="-1" Cut="0.0000000000000000e+00" cType="1" res="-9.9000000000000000e+01" rms="0.0000000000000000e+00" purity="6.1831271648406982e-01" nType="1"/>
              <Node pos="r" depth="4" NCoef="0" IVar="6" Cut="2.1316452026367188e+01" cType="1" res="-9.9000000000000000e+01" rms="0.0000000000000000e+00" purity="5.2270334959030151e-01" nType="0">
                <Node pos="l" depth="5" NCoef="0" IVar="-1" Cut="9.9569278955459595e-01" cType="0" res="-9.9000000000000000e+01" rms="0.0000000000000000e+00" purity="5.4243367910385132e-01" nType="1"/>
                <Node pos="r" depth="5" NCoef="0" IVar="-1" Cut="0.0000000000000000e+00" cType="1" res="-9.9000000000000000e+01" rms="0.0000000000000000e+00" purity="4.7870337963104248e-01" nType="-1"/>
              </Node>
            </Node>
          </Node>
          <Node pos="r" depth="2" NCoef="0" IVar="9" Cut="7.8431464731693268e-02" cType="0" res="-9.9000000000000000e+01" rms="0.0000000000000000e+00" purity="4.9294567108154297e-01" nType="0">
            <Node pos="l" depth="3" NCoef="0" IVar="0" Cut="1.0588234901428223e+01" cType="0" res="-9.9000000000000000e+01" rms="0.0000000000000000e+00" purity="5.1191884279251099e-01" nType="0">
              <Node pos="l" depth="4" NCoef="0" IVar="-1" Cut="3.8562336564064026e-01" cType="0" res="-9.9000000000000000e+01" rms="0.0000000000000000e+00" purity="5.4018884897232056e-01" nType="1"/>
              <Node pos="r" depth="4" NCoef="0" IVar="9" Cut="4.9404117465019226e-01" cType="1" res="-9.9000000000000000e+01" rms="0.0000000000000000e+00" purity="4.8972740769386292e-01" nType="0">
                <Node pos="l" depth="5" NCoef="0" IVar="3" Cut="4.3200000000000000e+02" cType="0" res="-9.9000000000000000e+01" rms="0.0000000000000000e+00" purity="5.1111370325088501e-01" nType="0">
                  <Node pos="l" depth="6" NCoef="0" IVar="-1" Cut="0.0000000000000000e+00" cType="1" res="-9.9000000000000000e+01" rms="0.0000000000000000e+00" purity="5.4074269533157349e-01" nType="1"/>
                  <Node pos="r" depth="6" NCoef="0" IVar="-1" Cut="0.0000000000000000e+00" cType="1" res="-9.9000000000000000e+01" rms="0.0000000000000000e+00" purity="4.6042835712432861e-01" nType="-1"/>
                </Node>
                <Node pos="r" depth="5" NCoef="0" IVar="-1" Cut="0.0000000000000000e+00" cType="1" res="-9.9000000000000000e+01" rms="0.0000000000000000e+00" purity="4.2358377575874329e-01" nType="-1"/>
              </Node>
            </Node>
            <Node pos="r" depth="3" NCoef="0" IVar="5" Cut="1.2319971621036530e-01" cType="0" res="-9.9000000000000000e+01" rms="0.0000000000000000e+00" purity="4.7716745734214783e-01" nType="0">
              <Node pos="l" depth="4" NCoef="0" IVar="7" Cut="4.7949171066284180e-01" cType="1" res="-9.9000000000000000e+01" rms="0.0000000000000000e+00" purity="4.9133318662643433e-01" nType="0">
                <Node pos="l" depth="5" NCoef="0" IVar="-1" Cut="0.0000000000000000e+00" cType="1" res="-9.9000000000000000e+01" rms="0.0000000000000000e+00" purity="5.5456030368804932e-01" nType="1"/>
                <Node pos="r" depth="5" NCoef="0" IVar="1" Cut="3.0000000000000000e+00" cType="1" res="-9.9000000000000000e+01" rms="0.0000000000000000e+00" purity="4.7435426712036133e-01" nType="0">
                  <Node pos="l" depth="6" NCoef="0" IVar="-1" Cut="0.0000000000000000e+00" cType="1" res="-9.9000000000000000e+01" rms="0.0000000000000000e+00" purity="5.0161308050155640e-01" nType="1"/>
                  <Node pos="r" depth="6" NCoef="0" IVar="-1" Cut="0.0000000000000000e+00" cType="1" res="-9.9000000000000000e+01" rms="0.0000000000000000e+00" purity="4.5030725002288818e-01" nType="-1"/>
                </Node>
              </Node>
              <Node pos="r" depth="4" NCoef="0" IVar="-1" Cut="1.1746800422668457e+01" cType="1" res="-9.9000000000000000e+01" rms="0.0000000000000000e+00" purity="4.5210716128349304e-01" nType="-1"/>
            </Node>
          </Node>
        </Node>
        <Node pos="r" depth="1" NCoef="0" IVar="7" Cut="-9.7846984863281250e-01" cType="1" res="-9.9000000000000000e+01" rms="0.0000000000000000e+00" purity="3.6483001708984375e-01" nType="0">
          <Node pos="l" depth="2" NCoef="0" IVar="-1" Cut="0.0000000000000000e+00" cType="1" res="-9.9000000000000000e+01" rms="0.0000000000000000e+00" purity="6.7927354574203491e-01" nType="1"/>
          <Node pos="r" depth="2" NCoef="0" IVar="-1" Cut="1.3456135988235474e-02" cType="0" res="-9.9000000000000000e+01" rms="0.0000000000000000e+00" purity="2.3037859797477722e-01" nType="-1"/>
        </Node>
      </Node>
    </BinaryTree>
    <BinaryTree type="DecisionTree" boostWeight="1.4006517341099539e-01" itree="7">
      <Node pos="s" depth="0" NCoef="0" IVar="7" Cut="5.8821886777877808e-02" cType="0" res="-9.9000000000000000e+01" rms="0.0000000000000000e+00" purity="4.9721980094909668e-01" nType="0">
        <Node pos="l" depth="1" NCoef="0" IVar="7" Cut="9.8154246807098389e-01" cType="0" res="-9.9000000000000000e+01" rms="0.0000000000000000e+00" purity="5.1632231473922729e-01" nType="0">
          <Node pos="l" depth="2" NCoef="0" IVar="7" Cut="9.9891132116317749e-01" cType="0" res="-9.9000000000000000e+01" rms="0.0000000000000000e+00" purity="5.7892644405364990e-01" nType="0">
            <Node pos="l" depth="3" NCoef="0" IVar="-1" Cut="9.9952864646911621e-01" cType="0" res="-9.9000000000000000e+01" rms="0.0000000000000000e+00" purity="8.0591148138046265e-01" nType="1"/>
            <Node pos="r" depth="3" NCoef="0" IVar="7" Cut="9.9754899740219116e-01" cType="0" res="-9.9000000000000000e+01" rms="0.0000000000000000e+00" purity="5.1559412479400635e-01" nType="0">
              <Node pos="l" depth="4" NCoef="0" IVar="-1" Cut="0.0000000000000000e+00" cType="1" res="-9.9000000000000000e+01" rms="0.0000000000000000e+00" purity="5.7979083061218262e-01" nType="1"/>
              <Node pos="r" depth="4" NCoef="0" IVar="4" Cut="1.0393505096435547e+01" cType="0" res="-9.9000000000000000e+01" rms="0.0000000000000000e+00" purity="5.0166386365890503e-01" nType="0">
                <Node pos="l" depth="5" NCoef="0" IVar="-1" Cut="0.0000000000000000e+00" cType="1" res="-9.9000000000000000e+01" rms="0.0000000000000000e+00" purity="5.2921760082244873e-01" nType="1"/>
                <Node pos="r" depth="5" NCoef="0" IVar="0" Cut="1.4117647171020508e+01" cType="0" res="-9.9000000000000000e+01" rms="0.0000000000000000e+00" purity="4.8886403441429138e-01" nType="0">
                  <Node pos="l" depth="6" NCoef="0" IVar="-1" Cut="0.0000000000000000e+00" cType="1" res="-9.9000000000000000e+01" rms="0.0000000000000000e+00" purity="5.0538444519042969e-01" nType="1"/>
                  <Node pos="r" depth="6" NCoef="0" IVar="-1" Cut="0.0000000000000000e+00" cType="1" res="-9.9000000000000000e+01" rms="0.0000000000000000e+00" purity="4.7608885169029236e-01" nType="-1"/>
                </Node>
              </Node>
            </Node>
          </Node>
          <Node pos="r" depth="2" NCoef="0" IVar="1" Cut="5.0000000000000000e+00" cType="0" res="-9.9000000000000000e+01" rms="0.0000000000000000e+00" purity="4.9002188444137573e-01" nType="0">
            <Node pos="l" depth="3" NCoef="0" IVar="-1" Cut="0.0000000000000000e+00" cType="1" res="-9.9000000000000000e+01" rms="0.0000000000000000e+00" purity="5.4170697927474976e-01" nType="1"/>
            <Node pos="r" depth="3" NCoef="0" IVar="7" Cut="1.8546982109546661e-01" cType="0" res="-9.9000000000000000e+01" rms="0.0000000000000000e+00" purity="4.8265188932418823e-01" nType="0">
              <Node pos="l" depth="4" NCoef="0" IVar="9" Cut="1.9607866182923317e-02" cType="0" res="-9.9000000000000000e+01" rms="0.0000000000000000e+00" purity="4.8792150616645813e-01" nType="0">
                <Node pos="l" depth="5" NCoef="0" IVar="7" Cut="9.5032376050949097e-01" cType="0" res="-9.9000000000000000e+01" rms="0.0000000000000000e+00" purity="4.9791190028190613e-01" nType="0">
                  <Node pos="l" depth="6" NCoef="0" IVar="-1" Cut="0.0000000000000000e+00" cType="1" res="-9.9000000000000000e+01" rms="0.0000000000000000e+00" purity="5.2252429723739624e-01" nType="1"/>
                  <Node pos="r" depth="6" NCoef="0" IVar="-1" Cut="0.0000000000000000e+00" cType="1" res="-9.9000000000000000e+01" rms="0.0000000000000000e+00" purity="4.8945751786231995e-01" nType="-1"/>
                </Node>
                <Node pos="r" depth="5" NCoef="0" IVar="-1" Cut="8.4105956554412842e-01" cType="1" res="-9.9000000000000000e+01" rms="0.0000000000000000e+00" purity="4.5683115720748901e-01" nType="-1"/>
              </Node>
              <Node pos="r" depth="4" NCoef="0" IVar="-1" Cut="0.0000000000000000e+00" cType="1" res="-9.9000000000000000e+01" rms="0.0000000000000000e+00" purity="4.2817157506942749e-01" nType="-1"/>
            </Node>
          </Node>
        </Node>
        <Node pos="r" depth="1" NCoef="0" IVar="7" Cut="-9.7923880815505981e-01" cType="1" res="-9.9000000000000000e+01" rms="0.0000000000000000e+00" purity="3.6349159479141235e-01" nType="0">
          <Node pos="l" depth="2" NCoef="0" IVar="-1" Cut="0.0000000000000000e+00" cType="1" res="-9.9000000000000000e+01" rms="0.0000000000000000e+00" purity="6.3822948932647705e-01" nType="1"/>
          <Node pos="r" depth="2" NCoef="0" IVar="-1" Cut="1.0380324907600880e-02" cType="0" res="-9.9000000000000000e+01" rms="0.0000000000000000e+00" purity="2.1402953565120697e-01" nType="-1"/>
        </Node>
      </Node>
    </BinaryTree>
    <BinaryTree type="DecisionTree" boostWeight="1.1685256999893856e-01" itree="8">
      <Node pos="s" depth="0" NCoef="0" IVar="7" Cut="5.8821886777877808e-02" cType="0" res="-9.9000000000000000e+01" rms="0.0000000000000000e+00" purity="5.0348371267318726e-01" nType="0">
        <Node pos="l" depth="1" NCoef="0" IVar="3" Cut="1.9000000000000000e+02" cType="1" res="-9.9000000000000000e+01" rms="0.0000000000000000e+00" purity="5.2210998535156250e-01" nType="0">
          <Node pos="l" depth="2" NCoef="0" IVar="-1" Cut="1.1764705657958984e+01" cType="0" res="-9.9000000000000000e+01" rms="0.0000000000000000e+00" purity="6.0956591367721558e-01" nType="1"/>
          <Node pos="r" depth="2" NCoef="0" IVar="4" Cut="1.4358405113220215e+01" cType="1" res="-9.9000000000000000e+01" rms="0.0000000000000000e+00" purity="5.1297819614410400e-01" nType="0">
            <Node pos="l" depth="3" NCoef="0" IVar="7" Cut="9.8154246807098389e-01" cType="0" res="-9.9000000000000000e+01" rms="0.0000000000000000e+00" purity="5.1928257942199707e-01" nType="0">
              <Node pos="l" depth="4" NCoef="0" IVar="7" Cut="9.9927318096160889e-01" cType="0" res="-9.9000000000000000e+01" rms="0.0000000000000000e+00" purity="5.5037933588027954e-01" nType="0">
                <Node pos="l" depth="5" NCoef="0" IVar="-1" Cut="0.0000000000000000e+00" cType="1" res="-9.9000000000000000e+01" rms="0.0000000000000000e+00" purity="8.1035262346267700e-01" nType="1"/>
                <Node pos="r" depth="5" NCoef="0" IVar="7" Cut="9.9753481149673462e-01" cType="0" res="-9.9000000000000000e+01" rms="0.0000000000000000e+00" purity="5.0875824689865112e-01" nType="0">
                  <Node pos="l" depth="6" NCoef="0" IVar="-1" Cut="0.0000000000000000e+00" cType="1" res="-9.9000000000000000e+01" rms="0.0000000000000000e+00" purity="5.4948568344116211e-01" nType="1"/>
                  <Node pos="r" depth="6" NCoef="0" IVar="-1" Cut="0.0000000000000000e+00" cType="1" res="-9.9000000000000000e+01" rms="0.0000000000000000e+00" purity="4.9785304069519043e-01" nType="-1"/>
                </Node>
              </Node>
              <Node pos="r" depth="4" NCoef="0" IVar="4" Cut="1.2950717926025391e+01" cType="0" res="-9.9000000000000000e+01" rms="0.0000000000000000e+00" purity="5.0754928588867188e-01" nType="0">
                <Node pos="l" depth="5" NCoef="0" IVar="3" Cut="2.3730000000000000e+03" cType="0" res="-9.9000000000000000e+01" rms="0.0000000000000000e+00" purity="5.4522353410720825e-01" nType="0">
                  <Node pos="l" depth="6" NCoef="0" IVar="-1" Cut="0.0000000000000000e+00" cType="1" res="-9.9000000000000000e+01" rms="0.0000000000000000e+00" purity="5.7434916496276855e-01" nType="1"/>
                  <Node pos="r" depth="6" NCoef="0" IVar="-1" Cut="0.0000000000000000e+00" cType="1" res="-9.9000000000000000e+01" rms="0.0000000000000000e+00" purity="4.9495434761047363e-01" nType="-1"/>
                </Node>
                <Node pos="r" depth="5" NCoef="0" IVar="3" Cut="2.7520000000000000e+03" cType="1" res="-9.9000000000000000e+01" rms="0.0000000000000000e+00" purity="5.0200903415679932e-01" nType="0">
                  <Node pos="l" depth="6" NCoef="0" IVar="-1" Cut="0.0000000000000000e+00" cType="1" res="-9.9000000000000000e+01" rms="0.0000000000000000e+00" purity="5.0513005256652832e-01" nType="1"/>
                  <Node pos="r" depth="6" NCoef="0" IVar="-1" Cut="0.0000000000000000e+00" cType="1" res="-9.9000000000000000e+01" rms="0.0000000000000000e+00" purity="4.6447932720184326e-01" nType="-1"/>
                </Node>
              </Node>
            </Node>
            <Node pos="r" depth="3" NCoef="0" IVar="-1" Cut="0.0000000000000000e+00" cType="1" res="-9.9000000000000000e+01" rms="0.0000000000000000e+00" purity="4.1692543029785156e-01" nType="-1"/>
          </Node>
        </Node>
        <Node pos="r" depth="1" NCoef="0" IVar="3" Cut="7.2000000000000000e+01" cType="1" res="-9.9000000000000000e+01" rms="0.0000000000000000e+00" purity="3.6954870820045471e-01" nType="0">
          <Node pos="l" depth="2" NCoef="0" IVar="-1" Cut="0.0000000000000000e+00" cType="1" res="-9.9000000000000000e+01" rms="0.0000000000000000e+00" purity="7.1865761280059814e-01" nType="1"/>
          <Node pos="r" depth="2" NCoef="0" IVar="-1" Cut="1.7299378290772438e-02" cType="0" res="-9.9000000000000000e+01" rms="0.0000000000000000e+00" purity="2.7624142169952393e-01" nType="-1"/>
        </Node>
      </Node>
    </BinaryTree>
    <BinaryTree type="DecisionTree" boostWeight="1.3017175639680850e-01" itree="9">
      <Node pos="s" depth="0" NCoef="0" IVar="7" Cut="5.8821886777877808e-02" cType="0" res="-9.9000000000000000e+01" rms="0.0000000000000000e+00" purity="4.9445691704750061e-01" nType="0">
        <Node pos="l" depth="1" NCoef="0" IVar="7" Cut="9.8154246807098389e-01" cType="0" res="-9.9000000000000000e+01" rms="0.0000000000000000e+00" purity="5.0956380367279053e-01" nType="0">
          <Node pos="l" depth="2" NCoef="0" IVar="7" Cut="9.9927318096160889e-01" cType="0" res="-9.9000000000000000e+01" rms="0.0000000000000000e+00" purity="5.6648004055023193e-01" nType="0">
            <Node pos="l" depth="3" NCoef="0" IVar="-1" Cut="0.0000000000000000e+00" cType="1" res="-9.9000000000000000e+01" rms="0.0000000000000000e+00" purity="8.0982303619384766e-01" nType="1"/>
            <Node pos="r" depth="3" NCoef="0" IVar="7" Cut="9.9823015928268433e-01" cType="0" res="-9.9000000000000000e+01" rms="0.0000000000000000e+00" purity="5.2272820472717285e-01" nType="0">
              <Node pos="l" depth="4" NCoef="0" IVar="-1" Cut="0.0000000000000000e+00" cType="1" res="-9.9000000000000000e+01" rms="0.0000000000000000e+00" purity="5.7681924104690552e-01" nType="1"/>
              <Node pos="r" depth="4" NCoef="0" IVar="7" Cut="9.9430358409881592e-01" cType="1" res="-9.9000000000000000e+01" rms="0.0000000000000000e+00" purity="5.1276910305023193e-01" nType="0">
                <Node pos="l" depth="5" NCoef="0" IVar="0" Cut="1.0588234901428223e+01" cType="1" res="-9.9000000000000000e+01" rms="0.0000000000000000e+00" purity="5.2628922462463379e-01" nType="0">
                  <Node pos="l" depth="6" NCoef="0" IVar="-1" Cut="0.0000000000000000e+00" cType="1" res="-9.9000000000000000e+01" rms="0.0000000000000000e+00" purity="5.5207765102386475e-01" nType="1"/>
                  <Node pos="r" depth="6" NCoef="0" IVar="-1" Cut="0.0000000000000000e+00" cType="1" res="-9.9000000000000000e+01" rms="0.0000000000000000e+00" purity="4.9788123369216919e-01" nType="-1"/>
                </Node>
                <Node pos="r" depth="5" NCoef="0" IVar="-1" Cut="0.0000000000000000e+00" cType="1" res="-9.9000000000000000e+01" rms="0.0000000000000000e+00" purity="4.9036222696304321e-01" nType="-1"/>
              </Node>
            </Node>
          </Node>
          <Node pos="r" depth="2" NCoef="0" IVar="7" Cut="8.3680182695388794e-01" cType="1" res="-9.9000000000000000e+01" rms="0.0000000000000000e+00" purity="4.8604753613471985e-01" nType="0">
            <Node pos="l" depth="3" NCoef="0" IVar="1" Cut="3.0000000000000000e+00" cType="0" res="-9.9000000000000000e+01" rms="0.0000000000000000e+00" purity="5.0119179487228394e-01" nType="0">
              <Node pos="l" depth="4" NCoef="0" IVar="7" Cut="4.8594787716865540e-01" cType="1" res="-9.9000000000000000e+01" rms="0.0000000000000000e+00" purity="5.3289246559143066e-01" nType="0">
                <Node pos="l" depth="5" NCoef="0" IVar="-1" Cut="1.0468434333801270e+01" cType="0" res="-9.9000000000000000e+01" rms="0.0000000000000000e+00" purity="5.8334779739379883e-01" nType="1"/>
                <Node pos="r" depth="5" NCoef="0" IVar="7" Cut="6.8545287847518921e-01" cType="0" res="-9.9000000000000000e+01" rms="0.0000000000000000e+00" purity="4.9756869673728943e-01" nType="0">
                  <Node pos="l" depth="6" NCoef="0" IVar="-1" Cut="0.0000000000000000e+00" cType="1" res="-9.9000000000000000e+01" rms="0.0000000000000000e+00" purity="5.2320420742034912e-01" nType="1"/>
                  <Node pos="r" depth="6" NCoef="0" IVar="-1" Cut="0.0000000000000000e+00" cType="1" res="-9.9000000000000000e+01" rms="0.0000000000000000e+00" purity="4.6923369169235229e-01" nType="-1"/>
                </Node>
              </Node>
              <Node pos="r" depth="4" NCoef="0" IVar="7" Cut="2.7238446474075317e-01" cType="0" res="-9.9000000000000000e+01" rms="0.0000000000000000e+00" purity="4.8034462332725525e-01" nType="0">
                <Node pos="l" depth="5" NCoef="0" IVar="5" Cut="1.5301696956157684e-01" cType="1" res="-9.9000000000000000e+01" rms="0.0000000000000000e+00" purity="5.0102883577346802e-01" nType="0">
                  <Node pos="l" depth="6" NCoef="0" IVar="-1" Cut="0.0000000000000000e+00" cType="1" res="-9.9000000000000000e+01" rms="0.0000000000000000e+00" purity="5.1760721206665039e-01" nType="1"/>
                  <Node pos="r" depth="6" NCoef="0" IVar="-1" Cut="0.0000000000000000e+00" cType="1" res="-9.9000000000000000e+01" rms="0.0000000000000000e+00" purity="4.7116228938102722e-01" nType="-1"/>
                </Node>
                <Node pos="r" depth="5" NCoef="0" IVar="-1" Cut="5.9581320732831955e-02" cType="0" res="-9.9000000000000000e+01" rms="0.0000000000000000e+00" purity="4.2363205552101135e-01" nType="-1"/>
              </Node>
            </Node>
            <Node pos="r" depth="3" NCoef="0" IVar="1" Cut="4.0000000000000000e+00" cType="0" res="-9.9000000000000000e+01" rms="0.0000000000000000e+00" purity="4.6864575147628784e-01" nType="0">
              <Node pos="l" depth="4" NCoef="0" IVar="-1" Cut="0.0000000000000000e+00" cType="1" res="-9.9000000000000000e+01" rms="0.0000000000000000e+00" purity="5.0318664312362671e-01" nType="1"/>
              <Node pos="r" depth="4" NCoef="0" IVar="-1" Cut="3.0000000000000000e+00" cType="1" res="-9.9000000000000000e+01" rms="0.0000000000000000e+00" purity="4.6149671077728271e-01" nType="-1"/>
            </Node>
          </Node>
        </Node>
        <Node pos="r" depth="1" NCoef="0" IVar="3" Cut="1.2700000000000000e+02" cType="1" res="-9.9000000000000000e+01" rms="0.0000000000000000e+00" purity="3.8338947296142578e-01" nType="0">
          <Node pos="l" depth="2" NCoef="0" IVar="-1" Cut="0.0000000000000000e+00" cType="1" res="-9.9000000000000000e+01" rms="0.0000000000000000e+00" purity="6.0149902105331421e-01" nType="1"/>
          <Node pos="r" depth="2" NCoef="0" IVar="-1" Cut="1.0380324907600880e-02" cType="0" res="-9.9000000000000000e+01" rms="0.0000000000000000e+00" purity="2.6013767719268799e-01" nType="-1"/>
        </Node>
      </Node>
    </BinaryTree>
    <BinaryTree type="DecisionTree" boostWeight="1.1418582585308383e-01" itree="10">
      <Node pos="s" depth="0" NCoef="0" IVar="7" Cut="5.8821886777877808e-02" cType="0" res="-9.9000000000000000e+01" rms="0.0000000000000000e+00" purity="4.9990332126617432e-01" nType="0">
        <Node pos="l" depth="1" NCoef="0" IVar="7" Cut="9.8154246807098389e-01" cType="0" res="-9.9000000000000000e+01" rms="0.0000000000000000e+00" purity="5.1461428403854370e-01" nType="0">
          <Node pos="l" depth="2" NCoef="0" IVar="7" Cut="9.9927318096160889e-01" cType="0" res="-9.9000000000000000e+01" rms="0.0000000000000000e+00" purity="5.6591933965682983e-01" nType="0">
            <Node pos="l" depth="3" NCoef="0" IVar="-1" Cut="0.0000000000000000e+00" cType="1" res="-9.9000000000000000e+01" rms="0.0000000000000000e+00" purity="7.8896355628967285e-01" nType="1"/>
            <Node pos="r" depth="3" NCoef="0" IVar="9" Cut="3.9215717464685440e-02" cType="0" res="-9.9000000000000000e+01" rms="0.0000000000000000e+00" purity="5.2728188037872314e-01" nType="0">
              <Node pos="l" depth="4" NCoef="0" IVar="-1" Cut="9.9649184942245483e-01" cType="0" res="-9.9000000000000000e+01" rms="0.0000000000000000e+00" purity="5.4162937402725220e-01" nType="1"/>
              <Node pos="r" depth="4" NCoef="0" IVar="-1" Cut="0.0000000000000000e+00" cType="1" res="-9.9000000000000000e+01" rms="0.0000000000000000e+00" purity="4.7982740402221680e-01" nType="-1"/>
            </Node>
          </Node>
          <Node pos="r" depth="2" NCoef="0" IVar="4" Cut="1.2957584381103516e+01" cType="0" res="-9.9000000000000000e+01" rms="0.0000000000000000e+00" purity="4.9351370334625244e-01" nType="0">
            <Node pos="l" depth="3" NCoef="0" IVar="4" Cut="1.3918933868408203e+01" cType="1" res="-9.9000000000000000e+01" rms="0.0000000000000000e+00" purity="5.2419179677963257e-01" nType="0">
              <Node pos="l" depth="4" NCoef="0" IVar="-1" Cut="0.0000000000000000e+00" cType="1" res="-9.9000000000000000e+01" rms="0.0000000000000000e+00" purity="5.5922460556030273e-01" nType="1"/>
              <Node pos="r" depth="4" NCoef="0" IVar="-1" Cut="0.0000000000000000e+00" cType="1" res="-9.9000000000000000e+01" rms="0.0000000000000000e+00" purity="4.9333977699279785e-01" nType="-1"/>
            </Node>
            <Node pos="r" depth="3" NCoef="0" IVar="9" Cut="1.9607873260974884e-01" cType="0" res="-9.9000000000000000e+01" rms="0.0000000000000000e+00" purity="4.8683023452758789e-01" nType="0">
              <Node pos="l" depth="4" NCoef="0" IVar="0" Cut="9.4117650985717773e+00" cType="0" res="-9.9000000000000000e+01" rms="0.0000000000000000e+00" purity="5.0030022859573364e-01" nType="0">
                <Node pos="l" depth="5" NCoef="0" IVar="9" Cut="4.9557957053184509e-01" cType="0" res="-9.9000000000000000e+01" rms="0.0000000000000000e+00" purity="5.1923823356628418e-01" nType="0">
                  <Node pos="l" depth="6" NCoef="0" IVar="-1" Cut="0.0000000000000000e+00" cType="1" res="-9.9000000000000000e+01" rms="0.0000000000000000e+00" purity="5.5122339725494385e-01" nType="1"/>
                  <Node pos="r" depth="6" NCoef="0" IVar="-1" Cut="0.0000000000000000e+00" cType="1" res="-9.9000000000000000e+01" rms="0.0000000000000000e+00" purity="4.9908068776130676e-01" nType="-1"/>
                </Node>
                <Node pos="r" depth="5" NCoef="0" IVar="1" Cut="2.0000000000000000e+00" cType="0" res="-9.9000000000000000e+01" rms="0.0000000000000000e+00" purity="4.8023378849029541e-01" nType="0">
                  <Node pos="l" depth="6" NCoef="0" IVar="-1" Cut="0.0000000000000000e+00" cType="1" res="-9.9000000000000000e+01" rms="0.0000000000000000e+00" purity="5.2044558525085449e-01" nType="1"/>
                  <Node pos="r" depth="6" NCoef="0" IVar="-1" Cut="0.0000000000000000e+00" cType="1" res="-9.9000000000000000e+01" rms="0.0000000000000000e+00" purity="4.5282426476478577e-01" nType="-1"/>
                </Node>
              </Node>
              <Node pos="r" depth="4" NCoef="0" IVar="3" Cut="6.4700000000000000e+02" cType="0" res="-9.9000000000000000e+01" rms="0.0000000000000000e+00" purity="4.8060384392738342e-01" nType="0">
                <Node pos="l" depth="5" NCoef="0" IVar="7" Cut="3.6639538407325745e-01" cType="1" res="-9.9000000000000000e+01" rms="0.0000000000000000e+00" purity="4.9253711104393005e-01" nType="0">
                  <Node pos="l" depth="6" NCoef="0" IVar="-1" Cut="0.0000000000000000e+00" cType="1" res="-9.9000000000000000e+01" rms="0.0000000000000000e+00" purity="5.1978981494903564e-01" nType="1"/>
                  <Node pos="r" depth="6" NCoef="0" IVar="-1" Cut="0.0000000000000000e+00" cType="1" res="-9.9000000000000000e+01" rms="0.0000000000000000e+00" purity="4.8594009876251221e-01" nType="-1"/>
                </Node>
                <Node pos="r" depth="5" NCoef="0" IVar="-1" Cut="1.2178102135658264e-01" cType="1" res="-9.9000000000000000e+01" rms="0.0000000000000000e+00" purity="4.5505559444427490e-01" nType="-1"/>
              </Node>
            </Node>
          </Node>
        </Node>
        <Node pos="r" depth="1" NCoef="0" IVar="3" Cut="7.6000000000000000e+01" cType="1" res="-9.9000000000000000e+01" rms="0.0000000000000000e+00" purity="3.8969689607620239e-01" nType="0">
          <Node pos="l" depth="2" NCoef="0" IVar="-1" Cut="0.0000000000000000e+00" cType="1" res="-9.9000000000000000e+01" rms="0.0000000000000000e+00" purity="6.4764750003814697e-01" nType="1"/>
          <Node pos="r" depth="2" NCoef="0" IVar="-1" Cut="1.7299378290772438e-02" cType="0" res="-9.9000000000000000e+01" rms="0.0000000000000000e+00" purity="3.1085991859436035e-01" nType="-1"/>
        </Node>
      </Node>
    </BinaryTree>
    <BinaryTree type="DecisionTree" boostWeight="1.0045020300025612e-01" itree="11">
      <Node pos="s" depth="0" NCoef="0" IVar="7" Cut="1.9606262445449829e-02" cType="0" res="-9.9000000000000000e+01" rms="0.0000000000000000e+00" purity="5.0581520795822144e-01" nType="0">
        <Node pos="l" depth="1" NCoef="0" IVar="3" Cut="1.6700000000000000e+02" cType="1" res="-9.9000000000000000e+01" rms="0.0000000000000000e+00" purity="5.1773726940155029e-01" nType="0">
          <Node pos="l" depth="2" NCoef="0" IVar="-1" Cut="1.4117647171020508e+01" cType="0" res="-9.9000000000000000e+01" rms="0.0000000000000000e+00" purity="5.8978050947189331e-01" nType="1"/>
          <Node pos="r" depth="2" NCoef="0" IVar="7" Cut="2.8873330354690552e-01" cType="0" res="-9.9000000000000000e+01" rms="0.0000000000000000e+00" purity="5.1257973909378052e-01" nType="0">
            <Node pos="l" depth="3" NCoef="0" IVar="7" Cut="9.8605054616928101e-01" cType="0" res="-9.9000000000000000e+01" rms="0.0000000000000000e+00" purity="5.1804471015930176e-01" nType="0">
              <Node pos="l" depth="4" NCoef="0" IVar="7" Cut="9.9917650222778320e-01" cType="0" res="-9.9000000000000000e+01" rms="0.0000000000000000e+00" purity="5.4545456171035767e-01" nType="0">
                <Node pos="l" depth="5" NCoef="0" IVar="-1" Cut="0.0000000000000000e+00" cType="1" res="-9.9000000000000000e+01" rms="0.0000000000000000e+00" purity="7.2810584306716919e-01" nType="1"/>
                <Node pos="r" depth="5" NCoef="0" IVar="7" Cut="9.9402904510498047e-01" cType="1" res="-9.9000000000000000e+01" rms="0.0000000000000000e+00" purity="5.0916141271591187e-01" nType="0">
                  <Node pos="l" depth="6" NCoef="0" IVar="-1" Cut="0.0000000000000000e+00" cType="1" res="-9.9000000000000000e+01" rms="0.0000000000000000e+00" purity="5.3050512075424194e-01" nType="1"/>
                  <Node pos="r" depth="6" NCoef="0" IVar="-1" Cut="0.0000000000000000e+00" cType="1" res="-9.9000000000000000e+01" rms="0.0000000000000000e+00" purity="4.9161648750305176e-01" nType="-1"/>
                </Node>
              </Node>
              <Node pos="r" depth="4" NCoef="0" IVar="1" Cut="4.0000000000000000e+00" cType="1" res="-9.9000000000000000e+01" rms="0.0000000000000000e+00" purity="5.0834953784942627e-01" nType="0">
                <Node pos="l" depth="5" NCoef="0" IVar="7" Cut="9.5870465040206909e-01" cType="1" res="-9.9000000000000000e+01" rms="0.0000000000000000e+00" purity="5.1461797952651978e-01" nType="0">
                  <Node pos="l" depth="6" NCoef="0" IVar="-1" Cut="0.0000000000000000e+00" cType="1" res="-9.9000000000000000e+01" rms="0.0000000000000000e+00" purity="5.2214241027832031e-01" nType="1"/>
                  <Node pos="r" depth="6" NCoef="0" IVar="-1" Cut="0.0000000000000000e+00" cType="1" res="-9.9000000000000000e+01" rms="0.0000000000000000e+00" purity="4.9184110760688782e-01" nType="-1"/>
                </Node>
                <Node pos="r" depth="5" NCoef="0" IVar="7" Cut="8.7666738033294678e-01" cType="0" res="-9.9000000000000000e+01" rms="0.0000000000000000e+00" purity="4.8544383049011230e-01" nType="0">
                  <Node pos="l" depth="6" NCoef="0" IVar="-1" Cut="0.0000000000000000e+00" cType="1" res="-9.9000000000000000e+01" rms="0.0000000000000000e+00" purity="5.0221425294876099e-01" nType="1"/>
                  <Node pos="r" depth="6" NCoef="0" IVar="-1" Cut="0.0000000000000000e+00" cType="1" res="-9.9000000000000000e+01" rms="0.0000000000000000e+00" purity="4.7486782073974609e-01" nType="-1"/>
                </Node>
              </Node>
            </Node>
            <Node pos="r" depth="3" NCoef="0" IVar="5" Cut="1.4935651421546936e-01" cType="0" res="-9.9000000000000000e+01" rms="0.0000000000000000e+00" purity="4.7771579027175903e-01" nType="0">
              <Node pos="l" depth="4" NCoef="0" IVar="-1" Cut="0.0000000000000000e+00" cType="1" res="-9.9000000000000000e+01" rms="0.0000000000000000e+00" purity="5.7419615983963013e-01" nType="1"/>
              <Node pos="r" depth="4" NCoef="0" IVar="-1" Cut="1.6208489239215851e-01" cType="0" res="-9.9000000000000000e+01" rms="0.0000000000000000e+00" purity="4.2434519529342651e-01" nType="-1"/>
            </Node>
          </Node>
        </Node>
        <Node pos="r" depth="1" NCoef="0" IVar="3" Cut="1.5300000000000000e+02" cType="1" res="-9.9000000000000000e+01" rms="0.0000000000000000e+00" purity="3.7891024351119995e-01" nType="0">
          <Node pos="l" depth="2" NCoef="0" IVar="-1" Cut="0.0000000000000000e+00" cType="1" res="-9.9000000000000000e+01" rms="0.0000000000000000e+00" purity="5.6274026632308960e-01" nType="1"/>
          <Node pos="r" depth="2" NCoef="0" IVar="-1" Cut="0.0000000000000000e+00" cType="1" res="-9.9000000000000000e+01" rms="0.0000000000000000e+00" purity="1.9684024155139923e-01" nType="-1"/>
        </Node>
      </Node>
    </BinaryTree>
    <BinaryTree type="DecisionTree" boostWeight="9.4611568335078958e-02" itree="12">
      <Node pos="s" depth="0" NCoef="0" IVar="7" Cut="1.9606262445449829e-02" cType="0" res="-9.9000000000000000e+01" rms="0.0000000000000000e+00" purity="4.9998334050178528e-01" nType="0">
        <Node pos="l" depth="1" NCoef="0" IVar="7" Cut="9.6155023574829102e-01" cType="0" res="-9.9000000000000000e+01" rms="0.0000000000000000e+00" purity="5.1138925552368164e-01" nType="0">
          <Node pos="l" depth="2" NCoef="0" IVar="7" Cut="9.9924308061599731e-01" cType="0" res="-9.9000000000000000e+01" rms="0.0000000000000000e+00" purity="5.3931879997253418e-01" nType="0">
            <Node pos="l" depth="3" NCoef="0" IVar="-1" Cut="0.0000000000000000e+00" cType="1" res="-9.9000000000000000e+01" rms="0.0000000000000000e+00" purity="7.4610483646392822e-01" nType="1"/>
            <Node pos="r" depth="3" NCoef="0" IVar="6" Cut="6.6404106140136719e+01" cType="1" res="-9.9000000000000000e+01" rms="0.0000000000000000e+00" purity="5.1449948549270630e-01" nType="0">
              <Node pos="l" depth="4" NCoef="0" IVar="7" Cut="9.9554771184921265e-01" cType="0" res="-9.9000000000000000e+01" rms="0.0000000000000000e+00" purity="5.2075648307800293e-01" nType="0">
                <Node pos="l" depth="5" NCoef="0" IVar="-1" Cut="2.7300000000000000e+02" cType="1" res="-9.9000000000000000e+01" rms="0.0000000000000000e+00" purity="5.5110102891921997e-01" nType="1"/>
                <Node pos="r" depth="5" NCoef="0" IVar="3" Cut="5.2000000000000000e+02" cType="0" res="-9.9000000000000000e+01" rms="0.0000000000000000e+00" purity="5.0885665416717529e-01" nType="0">
                  <Node pos="l" depth="6" NCoef="0" IVar="-1" Cut="0.0000000000000000e+00" cType="1" res="-9.9000000000000000e+01" rms="0.0000000000000000e+00" purity="5.4259568452835083e-01" nType="1"/>
                  <Node pos="r" depth="6" NCoef="0" IVar="-1" Cut="0.0000000000000000e+00" cType="1" res="-9.9000000000000000e+01" rms="0.0000000000000000e+00" purity="4.8208463191986084e-01" nType="-1"/>
                </Node>
              </Node>
              <Node pos="r" depth="4" NCoef="0" IVar="-1" Cut="0.0000000000000000e+00" cType="1" res="-9.9000000000000000e+01" rms="0.0000000000000000e+00" purity="4.7683343291282654e-01" nType="-1"/>
            </Node>
          </Node>
          <Node pos="r" depth="2" NCoef="0" IVar="3" Cut="2.6700000000000000e+03" cType="0" res="-9.9000000000000000e+01" rms="0.0000000000000000e+00" purity="4.9419248104095459e-01" nType="0">
            <Node pos="l" depth="3" NCoef="0" IVar="7" Cut="7.7685540914535522e-01" cType="1" res="-9.9000000000000000e+01" rms="0.0000000000000000e+00" purity="5.2568745613098145e-01" nType="0">
              <Node pos="l" depth="4" NCoef="0" IVar="-1" Cut="1.3260017395019531e+01" cType="0" res="-9.9000000000000000e+01" rms="0.0000000000000000e+00" purity="5.4725313186645508e-01" nType="1"/>
              <Node pos="r" depth="4" NCoef="0" IVar="-1" Cut="0.0000000000000000e+00" cType="1" res="-9.9000000000000000e+01" rms="0.0000000000000000e+00" purity="4.8266422748565674e-01" nType="-1"/>
            </Node>
            <Node pos="r" depth="3" NCoef="0" IVar="7" Cut="1.6736237704753876e-01" cType="0" res="-9.9000000000000000e+01" rms="0.0000000000000000e+00" purity="4.8596391081809998e-01" nType="0">
              <Node pos="l" depth="4" NCoef="0" IVar="3" Cut="1.2510000000000000e+03" cType="1" res="-9.9000000000000000e+01" rms="0.0000000000000000e+00" purity="4.9263754487037659e-01" nType="0">
                <Node pos="l" depth="5" NCoef="0" IVar="3" Cut="1.0060000000000000e+03" cType="0" res="-9.9000000000000000e+01" rms="0.0000000000000000e+00" purity="4.9767613410949707e-01" nType="0">
                  <Node pos="l" depth="6" NCoef="0" IVar="-1" Cut="0.0000000000000000e+00" cType="1" res="-9.9000000000000000e+01" rms="0.0000000000000000e+00" purity="5.3730881214141846e-01" nType="1"/>
                  <Node pos="r" depth="6" NCoef="0" IVar="-1" Cut="0.0000000000000000e+00" cType="1" res="-9.9000000000000000e+01" rms="0.0000000000000000e+00" purity="4.9195271730422974e-01" nType="-1"/>
                </Node>
                <Node pos="r" depth="5" NCoef="0" IVar="4" Cut="1.0663820266723633e+01" cType="0" res="-9.9000000000000000e+01" rms="0.0000000000000000e+00" purity="4.7983968257904053e-01" nType="0">
                  <Node pos="l" depth="6" NCoef="0" IVar="-1" Cut="0.0000000000000000e+00" cType="1" res="-9.9000000000000000e+01" rms="0.0000000000000000e+00" purity="5.0027143955230713e-01" nType="1"/>
                  <Node pos="r" depth="6" NCoef="0" IVar="-1" Cut="0.0000000000000000e+00" cType="1" res="-9.9000000000000000e+01" rms="0.0000000000000000e+00" purity="4.3431013822555542e-01" nType="-1"/>
                </Node>
              </Node>
              <Node pos="r" depth="4" NCoef="0" IVar="5" Cut="8.9613907039165497e-02" cType="0" res="-9.9000000000000000e+01" rms="0.0000000000000000e+00" purity="4.4576767086982727e-01" nType="0">
                <Node pos="l" depth="5" NCoef="0" IVar="-1" Cut="0.0000000000000000e+00" cType="1" res="-9.9000000000000000e+01" rms="0.0000000000000000e+00" purity="5.1046121120452881e-01" nType="1"/>
                <Node pos="r" depth="5" NCoef="0" IVar="-1" Cut="0.0000000000000000e+00" cType="1" res="-9.9000000000000000e+01" rms="0.0000000000000000e+00" purity="3.9800673723220825e-01" nType="-1"/>
              </Node>
            </Node>
          </Node>
        </Node>
        <Node pos="r" depth="1" NCoef="0" IVar="3" Cut="1.5300000000000000e+02" cType="1" res="-9.9000000000000000e+01" rms="0.0000000000000000e+00" purity="3.7676090002059937e-01" nType="0">
          <Node pos="l" depth="2" NCoef="0" IVar="-1" Cut="0.0000000000000000e+00" cType="1" res="-9.9000000000000000e+01" rms="0.0000000000000000e+00" purity="5.3788739442825317e-01" nType="1"/>
          <Node pos="r" depth="2" NCoef="0" IVar="-1" Cut="0.0000000000000000e+00" cType="1" res="-9.9000000000000000e+01" rms="0.0000000000000000e+00" purity="2.1320541203022003e-01" nType="-1"/>
        </Node>
      </Node>
    </BinaryTree>
    <BinaryTree type="DecisionTree" boostWeight="1.0168356039972769e-01" itree="13">
      <Node pos="s" depth="0" NCoef="0" IVar="7" Cut="1.9606262445449829e-02" cType="0" res="-9.9000000000000000e+01" rms="0.0000000000000000e+00" purity="5.0209808349609375e-01" nType="0">
        <Node pos="l" depth="1" NCoef="0" IVar="7" Cut="9.6155023574829102e-01" cType="0" res="-9.9000000000000000e+01" rms="0.0000000000000000e+00" purity="5.1375347375869751e-01" nType="0">
          <Node pos="l" depth="2" NCoef="0" IVar="7" Cut="9.9924308061599731e-01" cType="0" res="-9.9000000000000000e+01" rms="0.0000000000000000e+00" purity="5.3638446331024170e-01" nType="0">
            <Node pos="l" depth="3" NCoef="0" IVar="-1" Cut="0.0000000000000000e+00" cType="1" res="-9.9000000000000000e+01" rms="0.0000000000000000e+00" purity="7.2776907682418823e-01" nType="1"/>
            <Node pos="r" depth="3" NCoef="0" IVar="0" Cut="9.4117650985717773e+00" cType="0" res="-9.9000000000000000e+01" rms="0.0000000000000000e+00" purity="5.1387709379196167e-01" nType="0">
              <Node pos="l" depth="4" NCoef="0" IVar="1" Cut="2.0000000000000000e+00" cType="1" res="-9.9000000000000000e+01" rms="0.0000000000000000e+00" purity="5.2597838640213013e-01" nType="0">
                <Node pos="l" depth="5" NCoef="0" IVar="-1" Cut="0.0000000000000000e+00" cType="1" res="-9.9000000000000000e+01" rms="0.0000000000000000e+00" purity="5.6365758180618286e-01" nType="1"/>
                <Node pos="r" depth="5" NCoef="0" IVar="9" Cut="1.1583606153726578e-01" cType="1" res="-9.9000000000000000e+01" rms="0.0000000000000000e+00" purity="4.9982720613479614e-01" nType="0">
                  <Node pos="l" depth="6" NCoef="0" IVar="-1" Cut="0.0000000000000000e+00" cType="1" res="-9.9000000000000000e+01" rms="0.0000000000000000e+00" purity="5.3371059894561768e-01" nType="1"/>
                  <Node pos="r" depth="6" NCoef="0" IVar="-1" Cut="0.0000000000000000e+00" cType="1" res="-9.9000000000000000e+01" rms="0.0000000000000000e+00" purity="4.6391573548316956e-01" nType="-1"/>
                </Node>
              </Node>
              <Node pos="r" depth="4" NCoef="0" IVar="3" Cut="3.5900000000000000e+02" cType="0" res="-9.9000000000000000e+01" rms="0.0000000000000000e+00" purity="4.9977356195449829e-01" nType="0">
                <Node pos="l" depth="5" NCoef="0" IVar="-1" Cut="4.4290585517883301e+00" cType="0" res="-9.9000000000000000e+01" rms="0.0000000000000000e+00" purity="5.1808673143386841e-01" nType="1"/>
                <Node pos="r" depth="5" NCoef="0" IVar="-1" Cut="0.0000000000000000e+00" cType="1" res="-9.9000000000000000e+01" rms="0.0000000000000000e+00" purity="4.5769894123077393e-01" nType="-1"/>
              </Node>
            </Node>
          </Node>
          <Node pos="r" depth="2" NCoef="0" IVar="7" Cut="1.6736239194869995e-01" cType="0" res="-9.9000000000000000e+01" rms="0.0000000000000000e+00" purity="4.9986097216606140e-01" nType="0">
            <Node pos="l" depth="3" NCoef="0" IVar="3" Cut="1.2420000000000000e+03" cType="1" res="-9.9000000000000000e+01" rms="0.0000000000000000e+00" purity="5.0381165742874146e-01" nType="0">
              <Node pos="l" depth="4" NCoef="0" IVar="4" Cut="1.1646758079528809e+01" cType="1" res="-9.9000000000000000e+01" rms="0.0000000000000000e+00" purity="5.1547181606292725e-01" nType="0">
                <Node pos="l" depth="5" NCoef="0" IVar="5" Cut="1.4825817942619324e-01" cType="1" res="-9.9000000000000000e+01" rms="0.0000000000000000e+00" purity="5.2150809764862061e-01" nType="0">
                  <Node pos="l" depth="6" NCoef="0" IVar="-1" Cut="0.0000000000000000e+00" cType="1" res="-9.9000000000000000e+01" rms="0.0000000000000000e+00" purity="5.3130704164505005e-01" nType="1"/>
                  <Node pos="r" depth="6" NCoef="0" IVar="-1" Cut="0.0000000000000000e+00" cType="1" res="-9.9000000000000000e+01" rms="0.0000000000000000e+00" purity="4.8155358433723450e-01" nType="-1"/>
                </Node>
                <Node pos="r" depth="5" NCoef="0" IVar="-1" Cut="0.0000000000000000e+00" cType="1" res="-9.9000000000000000e+01" rms="0.0000000000000000e+00" purity="4.6725785732269287e-01" nType="-1"/>
              </Node>
              <Node pos="r" depth="4" NCoef="0" IVar="3" Cut="2.7410000000000000e+03" cType="0" res="-9.9000000000000000e+01" rms="0.0000000000000000e+00" purity="4.8878037929534912e-01" nType="0">
                <Node pos="l" depth="5" NCoef="0" IVar="1" Cut="4.0000000000000000e+00" cType="1" res="-9.9000000000000000e+01" rms="0.0000000000000000e+00" purity="5.0829440355300903e-01" nType="0">
                  <Node pos="l" depth="6" NCoef="0" IVar="-1" Cut="0.0000000000000000e+00" cType="1" res="-9.9000000000000000e+01" rms="0.0000000000000000e+00" purity="5.2930730581283569e-01" nType="1"/>
                  <Node pos="r" depth="6" NCoef="0" IVar="-1" Cut="0.0000000000000000e+00" cType="1" res="-9.9000000000000000e+01" rms="0.0000000000000000e+00" purity="4.9222731590270996e-01" nType="-1"/>
                </Node>
                <Node pos="r" depth="5" NCoef="0" IVar="-1" Cut="8.2352943420410156e+00" cType="1" res="-9.9000000000000000e+01" rms="0.0000000000000000e+00" purity="4.7137033939361572e-01" nType="-1"/>
              </Node>
            </Node>
            <Node pos="r" depth="3" NCoef="0" IVar="1" Cut="3.0000000000000000e+00" cType="0" res="-9.9000000000000000e+01" rms="0.0000000000000000e+00" purity="4.7476977109909058e-01" nType="0">
              <Node pos="l" depth="4" NCoef="0" IVar="-1" Cut="0.0000000000000000e+00" cType="1" res="-9.9000000000000000e+01" rms="0.0000000000000000e+00" purity="5.7695126533508301e-01" nType="1"/>
              <Node pos="r" depth="4" NCoef="0" IVar="-1" Cut="1.0409055709838867e+01" cType="0" res="-9.9000000000000000e+01" rms="0.0000000000000000e+00" purity="4.2077192664146423e-01" nType="-1"/>
            </Node>
          </Node>
        </Node>
        <Node pos="r" depth="1" NCoef="0" IVar="3" Cut="1.5300000000000000e+02" cType="1" res="-9.9000000000000000e+01" rms="0.0000000000000000e+00" purity="3.7467157840728760e-01" nType="0">
          <Node pos="l" depth="2" NCoef="0" IVar="-1" Cut="0.0000000000000000e+00" cType="1" res="-9.9000000000000000e+01" rms="0.0000000000000000e+00" purity="5.1430338621139526e-01" nType="1"/>
          <Node pos="r" depth="2" NCoef="0" IVar="-1" Cut="0.0000000000000000e+00" cType="1" res="-9.9000000000000000e+01" rms="0.0000000000000000e+00" purity="2.2950656712055206e-01" nType="-1"/>
        </Node>
      </Node>
    </BinaryTree>
    <BinaryTree type="DecisionTree" boostWeight="7.8871486912613878e-02" itree="14">
      <Node pos="s" depth="0" NCoef="0" IVar="7" Cut="1.9606262445449829e-02" cType="0" res="-9.9000000000000000e+01" rms="0.0000000000000000e+00" purity="4.9868512153625488e-01" nType="0">
        <Node pos="l" depth="1" NCoef="0" IVar="3" Cut="2.3100000000000000e+02" cType="1" res="-9.9000000000000000e+01" rms="0.0000000000000000e+00" purity="5.1012450456619263e-01" nType="0">
          <Node pos="l" depth="2" NCoef="0" IVar="0" Cut="1.2941176414489746e+01" cType="0" res="-9.9000000000000000e+01" rms="0.0000000000000000e+00" purity="5.5060338973999023e-01" nType="0">
            <Node pos="l" depth="3" NCoef="0" IVar="-1" Cut="5.1146674156188965e-01" cType="0" res="-9.9000000000000000e+01" rms="0.0000000000000000e+00" purity="6.1452066898345947e-01" nType="1"/>
            <Node pos="r" depth="3" NCoef="0" IVar="8" Cut="1.5741968154907227e+01" cType="1" res="-9.9000000000000000e+01" rms="0.0000000000000000e+00" purity="4.9120873212814331e-01" nType="0">
              <Node pos="l" depth="4" NCoef="0" IVar="-1" Cut="0.0000000000000000e+00" cType="1" res="-9.9000000000000000e+01" rms="0.0000000000000000e+00" purity="5.0691479444503784e-01" nType="1"/>
              <Node pos="r" depth="4" NCoef="0" IVar="-1" Cut="0.0000000000000000e+00" cType="1" res="-9.9000000000000000e+01" rms="0.0000000000000000e+00" purity="4.7149372100830078e-01" nType="-1"/>
            </Node>
          </Node>
          <Node pos="r" depth="2" NCoef="0" IVar="2" Cut="2.0000000000000000e+00" cType="0" res="-9.9000000000000000e+01" rms="0.0000000000000000e+00" purity="5.0405520200729370e-01" nType="0">
            <Node pos="l" depth="3" NCoef="0" IVar="3" Cut="1.5940000000000000e+03" cType="1" res="-9.9000000000000000e+01" rms="0.0000000000000000e+00" purity="5.2120435237884521e-01" nType="0">
              <Node pos="l" depth="4" NCoef="0" IVar="-1" Cut="9.8077285289764404e-01" cType="0" res="-9.9000000000000000e+01" rms="0.0000000000000000e+00" purity="5.4248362779617310e-01" nType="1"/>
              <Node pos="r" depth="4" NCoef="0" IVar="7" Cut="8.8465654850006104e-01" cType="1" res="-9.9000000000000000e+01" rms="0.0000000000000000e+00" purity="5.0430268049240112e-01" nType="0">
                <Node pos="l" depth="5" NCoef="0" IVar="-1" Cut="3.0000000000000000e+00" cType="0" res="-9.9000000000000000e+01" rms="0.0000000000000000e+00" purity="5.2817028760910034e-01" nType="1"/>
                <Node pos="r" depth="5" NCoef="0" IVar="-1" Cut="0.0000000000000000e+00" cType="1" res="-9.9000000000000000e+01" rms="0.0000000000000000e+00" purity="4.4911751151084900e-01" nType="-1"/>
              </Node>
            </Node>
            <Node pos="r" depth="3" NCoef="0" IVar="7" Cut="1.7339324951171875e-01" cType="0" res="-9.9000000000000000e+01" rms="0.0000000000000000e+00" purity="4.9588373303413391e-01" nType="0">
              <Node pos="l" depth="4" NCoef="0" IVar="5" Cut="1.8430197238922119e-01" cType="0" res="-9.9000000000000000e+01" rms="0.0000000000000000e+00" purity="5.0163966417312622e-01" nType="0">
                <Node pos="l" depth="5" NCoef="0" IVar="-1" Cut="0.0000000000000000e+00" cType="1" res="-9.9000000000000000e+01" rms="0.0000000000000000e+00" purity="5.2923309803009033e-01" nType="1"/>
                <Node pos="r" depth="5" NCoef="0" IVar="4" Cut="1.1473766326904297e+01" cType="1" res="-9.9000000000000000e+01" rms="0.0000000000000000e+00" purity="4.9672031402587891e-01" nType="0">
                  <Node pos="l" depth="6" NCoef="0" IVar="-1" Cut="0.0000000000000000e+00" cType="1" res="-9.9000000000000000e+01" rms="0.0000000000000000e+00" purity="5.0591892004013062e-01" nType="1"/>
                  <Node pos="r" depth="6" NCoef="0" IVar="-1" Cut="0.0000000000000000e+00" cType="1" res="-9.9000000000000000e+01" rms="0.0000000000000000e+00" purity="4.4476568698883057e-01" nType="-1"/>
                </Node>
              </Node>
              <Node pos="r" depth="4" NCoef="0" IVar="-1" Cut="1.1450000000000000e+03" cType="0" res="-9.9000000000000000e+01" rms="0.0000000000000000e+00" purity="4.4692769646644592e-01" nType="-1"/>
            </Node>
          </Node>
        </Node>
        <Node pos="r" depth="1" NCoef="0" IVar="0" Cut="1.1764705657958984e+01" cType="0" res="-9.9000000000000000e+01" rms="0.0000000000000000e+00" purity="3.7236386537551880e-01" nType="0">
          <Node pos="l" depth="2" NCoef="0" IVar="-1" Cut="0.0000000000000000e+00" cType="1" res="-9.9000000000000000e+01" rms="0.0000000000000000e+00" purity="5.0848811864852905e-01" nType="1"/>
          <Node pos="r" depth="2" NCoef="0" IVar="-1" Cut="0.0000000000000000e+00" cType="1" res="-9.9000000000000000e+01" rms="0.0000000000000000e+00" purity="2.5502631068229675e-01" nType="-1"/>
        </Node>
      </Node>
    </BinaryTree>
    <BinaryTree type="DecisionTree" boostWeight="8.3392479861735494e-02" itree="15">
      <Node pos="s" depth="0" NCoef="0" IVar="7" Cut="1.9606262445449829e-02" cType="0" res="-9.9000000000000000e+01" rms="0.0000000000000000e+00" purity="4.8815938830375671e-01" nType="0">
        <Node pos="l" depth="1" NCoef="0" IVar="3" Cut="2.3100000000000000e+02" cType="1" res="-9.9000000000000000e+01" rms="0.0000000000000000e+00" purity="4.9854987859725952e-01" nType="0">
          <Node pos="l" depth="2" NCoef="0" IVar="0" Cut="1.1764705657958984e+01" cType="0" res="-9.9000000000000000e+01" rms="0.0000000000000000e+00" purity="5.4015648365020752e-01" nType="0">
            <Node pos="l" depth="3" NCoef="0" IVar="-1" Cut="5.3100806474685669e-01" cType="0" res="-9.9000000000000000e+01" rms="0.0000000000000000e+00" purity="5.9247004985809326e-01" nType="1"/>
            <Node pos="r" depth="3" NCoef="0" IVar="-1" Cut="0.0000000000000000e+00" cType="1" res="-9.9000000000000000e+01" rms="0.0000000000000000e+00" purity="4.8447853326797485e-01" nType="-1"/>
          </Node>
          <Node pos="r" depth="2" NCoef="0" IVar="4" Cut="9.4555349349975586e+00" cType="0" res="-9.9000000000000000e+01" rms="0.0000000000000000e+00" purity="4.9233025312423706e-01" nType="0">
            <Node pos="l" depth="3" NCoef="0" IVar="4" Cut="1.4729214668273926e+01" cType="1" res="-9.9000000000000000e+01" rms="0.0000000000000000e+00" purity="5.0307941436767578e-01" nType="0">
              <Node pos="l" depth="4" NCoef="0" IVar="3" Cut="6.8800000000000000e+02" cType="0" res="-9.9000000000000000e+01" rms="0.0000000000000000e+00" purity="5.0787192583084106e-01" nType="0">
                <Node pos="l" depth="5" NCoef="0" IVar="-1" Cut="1.3494656980037689e-01" cType="1" res="-9.9000000000000000e+01" rms="0.0000000000000000e+00" purity="5.1651132106781006e-01" nType="1"/>
                <Node pos="r" depth="5" NCoef="0" IVar="7" Cut="9.0388017892837524e-01" cType="0" res="-9.9000000000000000e+01" rms="0.0000000000000000e+00" purity="4.8280271887779236e-01" nType="0">
                  <Node pos="l" depth="6" NCoef="0" IVar="-1" Cut="0.0000000000000000e+00" cType="1" res="-9.9000000000000000e+01" rms="0.0000000000000000e+00" purity="5.0816208124160767e-01" nType="1"/>
                  <Node pos="r" depth="6" NCoef="0" IVar="-1" Cut="0.0000000000000000e+00" cType="1" res="-9.9000000000000000e+01" rms="0.0000000000000000e+00" purity="4.3313705921173096e-01" nType="-1"/>
                </Node>
              </Node>
              <Node pos="r" depth="4" NCoef="0" IVar="-1" Cut="0.0000000000000000e+00" cType="1" res="-9.9000000000000000e+01" rms="0.0000000000000000e+00" purity="4.4864028692245483e-01" nType="-1"/>
            </Node>
            <Node pos="r" depth="3" NCoef="0" IVar="3" Cut="4.3400000000000000e+02" cType="1" res="-9.9000000000000000e+01" rms="0.0000000000000000e+00" purity="4.7765588760375977e-01" nType="0">
              <Node pos="l" depth="4" NCoef="0" IVar="0" Cut="9.4117650985717773e+00" cType="0" res="-9.9000000000000000e+01" rms="0.0000000000000000e+00" purity="4.9925133585929871e-01" nType="0">
                <Node pos="l" depth="5" NCoef="0" IVar="1" Cut="2.0000000000000000e+00" cType="1" res="-9.9000000000000000e+01" rms="0.0000000000000000e+00" purity="5.2059382200241089e-01" nType="0">
                  <Node pos="l" depth="6" NCoef="0" IVar="-1" Cut="0.0000000000000000e+00" cType="1" res="-9.9000000000000000e+01" rms="0.0000000000000000e+00" purity="5.6155711412429810e-01" nType="1"/>
                  <Node pos="r" depth="6" NCoef="0" IVar="-1" Cut="0.0000000000000000e+00" cType="1" res="-9.9000000000000000e+01" rms="0.0000000000000000e+00" purity="4.8959597945213318e-01" nType="-1"/>
                </Node>
                <Node pos="r" depth="5" NCoef="0" IVar="-1" Cut="3.2800000000000000e+02" cType="0" res="-9.9000000000000000e+01" rms="0.0000000000000000e+00" purity="4.7097435593605042e-01" nType="-1"/>
              </Node>
              <Node pos="r" depth="4" NCoef="0" IVar="9" Cut="4.5098173618316650e-01" cType="1" res="-9.9000000000000000e+01" rms="0.0000000000000000e+00" purity="4.6480208635330200e-01" nType="0">
                <Node pos="l" depth="5" NCoef="0" IVar="0" Cut="7.0588235855102539e+00" cType="1" res="-9.9000000000000000e+01" rms="0.0000000000000000e+00" purity="4.7309887409210205e-01" nType="0">
                  <Node pos="l" depth="6" NCoef="0" IVar="-1" Cut="0.0000000000000000e+00" cType="1" res="-9.9000000000000000e+01" rms="0.0000000000000000e+00" purity="5.0190019607543945e-01" nType="1"/>
                  <Node pos="r" depth="6" NCoef="0" IVar="-1" Cut="0.0000000000000000e+00" cType="1" res="-9.9000000000000000e+01" rms="0.0000000000000000e+00" purity="4.6048116683959961e-01" nType="-1"/>
                </Node>
                <Node pos="r" depth="5" NCoef="0" IVar="-1" Cut="0.0000000000000000e+00" cType="1" res="-9.9000000000000000e+01" rms="0.0000000000000000e+00" purity="4.1756287217140198e-01" nType="-1"/>
              </Node>
            </Node>
          </Node>
        </Node>
        <Node pos="r" depth="1" NCoef="0" IVar="3" Cut="7.4000000000000000e+01" cType="1" res="-9.9000000000000000e+01" rms="0.0000000000000000e+00" purity="3.7246233224868774e-01" nType="0">
          <Node pos="l" depth="2" NCoef="0" IVar="-1" Cut="0.0000000000000000e+00" cType="1" res="-9.9000000000000000e+01" rms="0.0000000000000000e+00" purity="5.5560052394866943e-01" nType="1"/>
          <Node pos="r" depth="2" NCoef="0" IVar="-1" Cut="1.0588234901428223e+01" cType="0" res="-9.9000000000000000e+01" rms="0.0000000000000000e+00" purity="2.9214245080947876e-01" nType="-1"/>
        </Node>
      </Node>
    </BinaryTree>
    <BinaryTree type="DecisionTree" boostWeight="6.6605585436073741e-02" itree="16">
      <Node pos="s" depth="0" NCoef="0" IVar="7" Cut="1.9606262445449829e-02" cType="0" res="-9.9000000000000000e+01" rms="0.0000000000000000e+00" purity="4.8564374446868896e-01" nType="0">
        <Node pos="l" depth="1" NCoef="0" IVar="3" Cut="2.3100000000000000e+02" cType="1" res="-9.9000000000000000e+01" rms="0.0000000000000000e+00" purity="4.9511978030204773e-01" nType="0">
          <Node pos="l" depth="2" NCoef="0" IVar="0" Cut="1.2941176414489746e+01" cType="0" res="-9.9000000000000000e+01" rms="0.0000000000000000e+00" purity="5.3968995809555054e-01" nType="0">
            <Node pos="l" depth="3" NCoef="0" IVar="-1" Cut="5.1146674156188965e-01" cType="0" res="-9.9000000000000000e+01" rms="0.0000000000000000e+00" purity="5.7544225454330444e-01" nType="1"/>
            <Node pos="r" depth="3" NCoef="0" IVar="0" Cut="6.5974359512329102e+00" cType="0" res="-9.9000000000000000e+01" rms="0.0000000000000000e+00" purity="5.0693851709365845e-01" nType="0">
              <Node pos="l" depth="4" NCoef="0" IVar="-1" Cut="0.0000000000000000e+00" cType="1" res="-9.9000000000000000e+01" rms="0.0000000000000000e+00" purity="5.1679158210754395e-01" nType="1"/>
              <Node pos="r" depth="4" NCoef="0" IVar="-1" Cut="0.0000000000000000e+00" cType="1" res="-9.9000000000000000e+01" rms="0.0000000000000000e+00" purity="4.9735137820243835e-01" nType="-1"/>
            </Node>
          </Node>
          <Node pos="r" depth="2" NCoef="0" IVar="1" Cut="6.0000000000000000e+00" cType="0" res="-9.9000000000000000e+01" rms="0.0000000000000000e+00" purity="4.8847261071205139e-01" nType="0">
            <Node pos="l" depth="3" NCoef="0" IVar="-1" Cut="0.0000000000000000e+00" cType="1" res="-9.9000000000000000e+01" rms="0.0000000000000000e+00" purity="5.2075994014739990e-01" nType="1"/>
            <Node pos="r" depth="3" NCoef="0" IVar="4" Cut="1.4283194541931152e+01" cType="1" res="-9.9000000000000000e+01" rms="0.0000000000000000e+00" purity="4.8607718944549561e-01" nType="0">
              <Node pos="l" depth="4" NCoef="0" IVar="7" Cut="9.4232690334320068e-01" cType="0" res="-9.9000000000000000e+01" rms="0.0000000000000000e+00" purity="4.8787236213684082e-01" nType="0">
                <Node pos="l" depth="5" NCoef="0" IVar="7" Cut="9.9886614084243774e-01" cType="0" res="-9.9000000000000000e+01" rms="0.0000000000000000e+00" purity="4.9762088060379028e-01" nType="0">
                  <Node pos="l" depth="6" NCoef="0" IVar="-1" Cut="0.0000000000000000e+00" cType="1" res="-9.9000000000000000e+01" rms="0.0000000000000000e+00" purity="6.0100239515304565e-01" nType="1"/>
                  <Node pos="r" depth="6" NCoef="0" IVar="-1" Cut="0.0000000000000000e+00" cType="1" res="-9.9000000000000000e+01" rms="0.0000000000000000e+00" purity="4.8610073328018188e-01" nType="-1"/>
                </Node>
                <Node pos="r" depth="5" NCoef="0" IVar="4" Cut="1.3162940979003906e+01" cType="0" res="-9.9000000000000000e+01" rms="0.0000000000000000e+00" purity="4.8049911856651306e-01" nType="0">
                  <Node pos="l" depth="6" NCoef="0" IVar="-1" Cut="0.0000000000000000e+00" cType="1" res="-9.9000000000000000e+01" rms="0.0000000000000000e+00" purity="5.0168323516845703e-01" nType="1"/>
                  <Node pos="r" depth="6" NCoef="0" IVar="-1" Cut="0.0000000000000000e+00" cType="1" res="-9.9000000000000000e+01" rms="0.0000000000000000e+00" purity="4.7782593965530396e-01" nType="-1"/>
                </Node>
              </Node>
              <Node pos="r" depth="4" NCoef="0" IVar="-1" Cut="0.0000000000000000e+00" cType="1" res="-9.9000000000000000e+01" rms="0.0000000000000000e+00" purity="4.5431533455848694e-01" nType="-1"/>
            </Node>
          </Node>
        </Node>
        <Node pos="r" depth="1" NCoef="0" IVar="0" Cut="1.4117647171020508e+01" cType="0" res="-9.9000000000000000e+01" rms="0.0000000000000000e+00" purity="3.7896537780761719e-01" nType="0">
          <Node pos="l" depth="2" NCoef="0" IVar="-1" Cut="0.0000000000000000e+00" cType="1" res="-9.9000000000000000e+01" rms="0.0000000000000000e+00" purity="5.1034802198410034e-01" nType="1"/>
          <Node pos="r" depth="2" NCoef="0" IVar="-1" Cut="0.0000000000000000e+00" cType="1" res="-9.9000000000000000e+01" rms="0.0000000000000000e+00" purity="2.8959837555885315e-01" nType="-1"/>
        </Node>
      </Node>
    </BinaryTree>
    <BinaryTree type="DecisionTree" boostWeight="6.6989794236240505e-02" itree="17">
      <Node pos="s" depth="0" NCoef="0" IVar="7" Cut="1.9606262445449829e-02" cType="0" res="-9.9000000000000000e+01" rms="0.0000000000000000e+00" purity="4.9391207098960876e-01" nType="0">
        <Node pos="l" depth="1" NCoef="0" IVar="3" Cut="2.8500000000000000e+02" cType="1" res="-9.9000000000000000e+01" rms="0.0000000000000000e+00" purity="5.0386220216751099e-01" nType="0">
          <Node pos="l" depth="2" NCoef="0" IVar="7" Cut="9.8077148199081421e-01" cType="0" res="-9.9000000000000000e+01" rms="0.0000000000000000e+00" purity="5.2793163061141968e-01" nType="0">
            <Node pos="l" depth="3" NCoef="0" IVar="7" Cut="9.9848705530166626e-01" cType="0" res="-9.9000000000000000e+01" rms="0.0000000000000000e+00" purity="5.5493140220642090e-01" nType="0">
              <Node pos="l" depth="4" NCoef="0" IVar="-1" Cut="0.0000000000000000e+00" cType="1" res="-9.9000000000000000e+01" rms="0.0000000000000000e+00" purity="7.0029222965240479e-01" nType="1"/>
              <Node pos="r" depth="4" NCoef="0" IVar="-1" Cut="0.0000000000000000e+00" cType="1" res="-9.9000000000000000e+01" rms="0.0000000000000000e+00" purity="4.8670932650566101e-01" nType="-1"/>
            </Node>
            <Node pos="r" depth="3" NCoef="0" IVar="0" Cut="1.0588234901428223e+01" cType="1" res="-9.9000000000000000e+01" rms="0.0000000000000000e+00" purity="5.0157016515731812e-01" nType="0">
              <Node pos="l" depth="4" NCoef="0" IVar="-1" Cut="0.0000000000000000e+00" cType="1" res="-9.9000000000000000e+01" rms="0.0000000000000000e+00" purity="5.1668840646743774e-01" nType="1"/>
              <Node pos="r" depth="4" NCoef="0" IVar="-1" Cut="0.0000000000000000e+00" cType="1" res="-9.9000000000000000e+01" rms="0.0000000000000000e+00" purity="4.8037371039390564e-01" nType="-1"/>
            </Node>
          </Node>
          <Node pos="r" depth="2" NCoef="0" IVar="9" Cut="1.9607901573181152e-02" cType="0" res="-9.9000000000000000e+01" rms="0.0000000000000000e+00" purity="4.9847099184989929e-01" nType="0">
            <Node pos="l" depth="3" NCoef="0" IVar="2" Cut="2.0000000000000000e+00" cType="0" res="-9.9000000000000000e+01" rms="0.0000000000000000e+00" purity="5.0351709127426147e-01" nType="0">
              <Node pos="l" depth="4" NCoef="0" IVar="0" Cut="9.4117650985717773e+00" cType="0" res="-9.9000000000000000e+01" rms="0.0000000000000000e+00" purity="5.1617187261581421e-01" nType="0">
                <Node pos="l" depth="5" NCoef="0" IVar="-1" Cut="0.0000000000000000e+00" cType="1" res="-9.9000000000000000e+01" rms="0.0000000000000000e+00" purity="5.3326702117919922e-01" nType="1"/>
                <Node pos="r" depth="5" NCoef="0" IVar="-1" Cut="0.0000000000000000e+00" cType="1" res="-9.9000000000000000e+01" rms="0.0000000000000000e+00" purity="4.9566960334777832e-01" nType="-1"/>
              </Node>
              <Node pos="r" depth="4" NCoef="0" IVar="1" Cut="2.0000000000000000e+00" cType="0" res="-9.9000000000000000e+01" rms="0.0000000000000000e+00" purity="4.9957820773124695e-01" nType="0">
                <Node pos="l" depth="5" NCoef="0" IVar="0" Cut="1.4117647171020508e+01" cType="1" res="-9.9000000000000000e+01" rms="0.0000000000000000e+00" purity="5.0596737861633301e-01" nType="0">
                  <Node pos="l" depth="6" NCoef="0" IVar="-1" Cut="0.0000000000000000e+00" cType="1" res="-9.9000000000000000e+01" rms="0.0000000000000000e+00" purity="5.1600354909896851e-01" nType="1"/>
                  <Node pos="r" depth="6" NCoef="0" IVar="-1" Cut="0.0000000000000000e+00" cType="1" res="-9.9000000000000000e+01" rms="0.0000000000000000e+00" purity="4.8588189482688904e-01" nType="-1"/>
                </Node>
                <Node pos="r" depth="5" NCoef="0" IVar="-1" Cut="7.3000000000000000e+02" cType="1" res="-9.9000000000000000e+01" rms="0.0000000000000000e+00" purity="4.8474445939064026e-01" nType="-1"/>
              </Node>
            </Node>
            <Node pos="r" depth="3" NCoef="0" IVar="1" Cut="1.0000000000000000e+00" cType="1" res="-9.9000000000000000e+01" rms="0.0000000000000000e+00" purity="4.8651280999183655e-01" nType="0">
              <Node pos="l" depth="4" NCoef="0" IVar="5" Cut="1.4822237193584442e-01" cType="0" res="-9.9000000000000000e+01" rms="0.0000000000000000e+00" purity="5.0970613956451416e-01" nType="0">
                <Node pos="l" depth="5" NCoef="0" IVar="-1" Cut="0.0000000000000000e+00" cType="1" res="-9.9000000000000000e+01" rms="0.0000000000000000e+00" purity="5.3293836116790771e-01" nType="1"/>
                <Node pos="r" depth="5" NCoef="0" IVar="-1" Cut="0.0000000000000000e+00" cType="1" res="-9.9000000000000000e+01" rms="0.0000000000000000e+00" purity="4.7708654403686523e-01" nType="-1"/>
              </Node>
              <Node pos="r" depth="4" NCoef="0" IVar="7" Cut="9.2310303449630737e-01" cType="1" res="-9.9000000000000000e+01" rms="0.0000000000000000e+00" purity="4.7786170244216919e-01" nType="0">
                <Node pos="l" depth="5" NCoef="0" IVar="4" Cut="1.4358405113220215e+01" cType="0" res="-9.9000000000000000e+01" rms="0.0000000000000000e+00" purity="4.9644172191619873e-01" nType="0">
                  <Node pos="l" depth="6" NCoef="0" IVar="-1" Cut="0.0000000000000000e+00" cType="1" res="-9.9000000000000000e+01" rms="0.0000000000000000e+00" purity="5.3456383943557739e-01" nType="1"/>
                  <Node pos="r" depth="6" NCoef="0" IVar="-1" Cut="0.0000000000000000e+00" cType="1" res="-9.9000000000000000e+01" rms="0.0000000000000000e+00" purity="4.8244100809097290e-01" nType="-1"/>
                </Node>
                <Node pos="r" depth="5" NCoef="0" IVar="-1" Cut="0.0000000000000000e+00" cType="1" res="-9.9000000000000000e+01" rms="0.0000000000000000e+00" purity="4.2866274714469910e-01" nType="-1"/>
              </Node>
            </Node>
          </Node>
        </Node>
        <Node pos="r" depth="1" NCoef="0" IVar="-1" Cut="1.5300000000000000e+02" cType="1" res="-9.9000000000000000e+01" rms="0.0000000000000000e+00" purity="3.8110908865928650e-01" nType="-1"/>
      </Node>
    </BinaryTree>
    <BinaryTree type="DecisionTree" boostWeight="5.7833522075686768e-02" itree="18">
      <Node pos="s" depth="0" NCoef="0" IVar="7" Cut="1.9606262445449829e-02" cType="0" res="-9.9000000000000000e+01" rms="0.0000000000000000e+00" purity="4.9728113412857056e-01" nType="0">
        <Node pos="l" depth="1" NCoef="0" IVar="9" Cut="2.5490272045135498e-01" cType="0" res="-9.9000000000000000e+01" rms="0.0000000000000000e+00" purity="5.0606882572174072e-01" nType="0">
          <Node pos="l" depth="2" NCoef="0" IVar="0" Cut="9.4117650985717773e+00" cType="0" res="-9.9000000000000000e+01" rms="0.0000000000000000e+00" purity="5.2635544538497925e-01" nType="0">
            <Node pos="l" depth="3" NCoef="0" IVar="-1" Cut="2.0000000000000000e+00" cType="1" res="-9.9000000000000000e+01" rms="0.0000000000000000e+00" purity="5.5454504489898682e-01" nType="1"/>
            <Node pos="r" depth="3" NCoef="0" IVar="3" Cut="5.6100000000000000e+02" cType="1" res="-9.9000000000000000e+01" rms="0.0000000000000000e+00" purity="4.8422133922576904e-01" nType="0">
